{"learner":{"attributes":{"scikit_learn":"{\"_estimator_type\": \"classifier\"}"},"feature_names":["slope","aspect","curv","relief","twi","flow_acc","dist_water","lulc","precip_clim","Rain_3D","Rain_7D","Rain_Max","Rain_AM14"],"feature_types":["float","float","float","float","float","float","float","float","float","float","float","float","float"],"gradient_booster":{"model":{"cats":{"enc":[],"feature_segments":[],"sorted_idx":[]},"gbtree_model_param":{"num_parallel_tree":"1","num_trees":"500"},"iteration_indptr":[0,1,2,3,4,5,6,7,8,9,10,11,12,13,14,15,16,17,18,19,20,21,22,23,24,25,26,27,28,29,30,31,32,33,34,35,36,37,38,39,40,41,42,43,44,45,46,47,48,49,50,51,52,53,54,55,56,57,58,59,60,61,62,63,64,65,66,67,68,69,70,71,72,73,74,75,76,77,78,79,80,81,82,83,84,85,86,87,88,89,90,91,92,93,94,95,96,97,98,99,100,101,102,103,104,105,106,107,108,109,110,111,112,113,114,115,116,117,118,119,120,121,122,123,124,125,126,127,128,129,130,131,132,133,134,135,136,137,138,139,140,141,142,143,144,145,146,147,148,149,150,151,152,153,154,155,156,157,158,159,160,161,162,163,164,165,166,167,168,169,170,171,172,173,174,175,176,177,178,179,180,181,182,183,184,185,186,187,188,189,190,191,192,193,194,195,196,197,198,199,200,201,202,203,204,205,206,207,208,209,210,211,212,213,214,215,216,217,218,219,220,221,222,223,224,225,226,227,228,229,230,231,232,233,234,235,236,237,238,239,240,241,242,243,244,245,246,247,248,249,250,251,252,253,254,255,256,257,258,259,260,261,262,263,264,265,266,267,268,269,270,271,272,273,274,275,276,277,278,279,280,281,282,283,284,285,286,287,288,289,290,291,292,293,294,295,296,297,298,299,300,301,302,303,304,305,306,307,308,309,310,311,312,313,314,315,316,317,318,319,320,321,322,323,324,325,326,327,328,329,330,331,332,333,334,335,336,337,338,339,340,341,342,343,344,345,346,347,348,349,350,351,352,353,354,355,356,357,358,359,360,361,362,363,364,365,366,367,368,369,370,371,372,373,374,375,376,377,378,379,380,381,382,383,384,385,386,387,388,389,390,391,392,393,394,395,396,397,398,399,400,401,402,403,404,405,406,407,408,409,410,411,412,413,414,415,416,417,418,419,420,421,422,423,424,425,426,427,428,429,430,431,432,433,434,435,436,437,438,439,440,441,442,443,444,445,446,447,448,449,450,451,452,453,454,455,456,457,458,459,460,461,462,463,464,465,466,467,468,469,470,471,472,473,474,475,476,477,478,479,480,481,482,483,484,485,486,487,488,489,490,491,492,493,494,495,496,497,498,499,500],"tree_info":[0,0,0,0,0,0,0,0,0,0,0,0,0,0,0,0,0,0,0,0,0,0,0,0,0,0,0,0,0,0,0,0,0,0,0,0,0,0,0,0,0,0,0,0,0,0,0,0,0,0,0,0,0,0,0,0,0,0,0,0,0,0,0,0,0,0,0,0,0,0,0,0,0,0,0,0,0,0,0,0,0,0,0,0,0,0,0,0,0,0,0,0,0,0,0,0,0,0,0,0,0,0,0,0,0,0,0,0,0,0,0,0,0,0,0,0,0,0,0,0,0,0,0,0,0,0,0,0,0,0,0,0,0,0,0,0,0,0,0,0,0,0,0,0,0,0,0,0,0,0,0,0,0,0,0,0,0,0,0,0,0,0,0,0,0,0,0,0,0,0,0,0,0,0,0,0,0,0,0,0,0,0,0,0,0,0,0,0,0,0,0,0,0,0,0,0,0,0,0,0,0,0,0,0,0,0,0,0,0,0,0,0,0,0,0,0,0,0,0,0,0,0,0,0,0,0,0,0,0,0,0,0,0,0,0,0,0,0,0,0,0,0,0,0,0,0,0,0,0,0,0,0,0,0,0,0,0,0,0,0,0,0,0,0,0,0,0,0,0,0,0,0,0,0,0,0,0,0,0,0,0,0,0,0,0,0,0,0,0,0,0,0,0,0,0,0,0,0,0,0,0,0,0,0,0,0,0,0,0,0,0,0,0,0,0,0,0,0,0,0,0,0,0,0,0,0,0,0,0,0,0,0,0,0,0,0,0,0,0,0,0,0,0,0,0,0,0,0,0,0,0,0,0,0,0,0,0,0,0,0,0,0,0,0,0,0,0,0,0,0,0,0,0,0,0,0,0,0,0,0,0,0,0,0,0,0,0,0,0,0,0,0,0,0,0,0,0,0,0,0,0,0,0,0,0,0,0,0,0,0,0,0,0,0,0,0,0,0,0,0,0,0,0,0,0,0,0,0,0,0,0,0,0,0,0,0,0,0,0,0,0,0,0,0,0,0,0,0,0,0,0,0,0,0,0,0,0,0,0,0,0,0,0,0,0,0,0,0,0,0,0,0,0,0,0,0,0,0,0,0,0,0,0,0,0,0,0,0,0,0,0,0,0,0,0,0,0,0,0,0],"trees":[{"base_weights":[-1.3395413E-7,-1.7877295E0,9.4139415E-1,-7.3335624E-1,-1.8549165E0,1.0649524E0,-1.6100706E0,-2.1950755E-1,-1.0450202E0,-1.383158E0,-1.9139364E0,1.5652925E0,9.385764E-1,-9.983092E-2,1.6351974E0,-4.7644776E-1,5.2536166E-1,-4.520709E-1,-1.2733988E0,-7.136027E-1,-1.4986119E0,-1.9508855E0,-1.6730998E0,1.398763E0,1.807646E0,1.0707159E0,-9.4273396E-2,9.076403E-2,-1.4428277E0,-1.4775792E-1,-8.2746255E-1,7.5996685E-1,-3.9827123E-1,-8.334575E-1,-2.1415962E-1,-1.0589421E0,-1.7468085E0,-3.3345434E-1,-1.1048353E0,-1.2181706E0,-1.5732265E0,-1.8096857E0,-1.9815534E0,-1.6485472E0,-9.8511845E-2,1.3027809E0,1.7393757E0,1.832672E0,1.3200814E0,1.0885388E0,-1.0644737E0,-1.2511606E0,1.6696659E0,-8.563634E-2,-1.6606007E-2,-1.3238735E-3,-4.2770505E-2,-7.054459E-3,-5.3058572E-2,5.8477875E-2,1.8101182E-2,-6.811829E-3,-4.6076875E-2,-4.3136742E-2,1.3118665E-2,1.5713174E-2,-2.1764524E-2,-4.3136742E-2,-6.394828E-2,-4.3136742E-2,-8.9485064E-2,-2.0071037E-2,4.8225705E-2,-5.530537E-2,5.7445182E-3,-5.530537E-2,-7.683284E-2,-8.124104E-2,-6.8091266E-2,-8.242736E-2,-9.168772E-2,-9.657975E-2,-9.9757396E-2,-8.242736E-2,-9.136349E-2,6.9052964E-2,-2.6503224E-2,8.940039E-2,-2.2388117E-3,9.187485E-2,-7.615309E-3,7.3787436E-2,2.7359618E-2,5.5140257E-2,6.016255E-4,-3.8105503E-2,-9.65213E-2,-7.808855E-2,-2.591957E-2,8.514709E-2,-5.176763E-2],"categories":[],"categories_nodes":[],"categories_segments":[],"categories_sizes":[],"default_left":[0,0,0,0,0,0,0,0,0,0,0,0,0,0,0,0,0,0,0,0,0,0,0,0,0,0,0,0,0,0,0,0,0,0,0,0,0,0,0,0,0,0,0,0,0,0,0,0,0,0,0,0,0,0,0,0,0,0,0,0,0,0,0,0,0,0,0,0,0,0,0,0,0,0,0,0,0,0,0,0,0,0,0,0,0,0,0,0,0,0,0,0,0,0,0,0,0,0,0,0,0],"id":0,"left_children":[1,3,5,7,9,11,13,15,17,19,21,23,25,-1,27,29,31,33,35,37,39,41,43,45,47,49,51,-1,53,55,57,59,61,63,65,67,69,71,73,75,77,79,81,83,-1,85,87,89,91,93,95,97,99,-1,-1,-1,-1,-1,-1,-1,-1,-1,-1,-1,-1,-1,-1,-1,-1,-1,-1,-1,-1,-1,-1,-1,-1,-1,-1,-1,-1,-1,-1,-1,-1,-1,-1,-1,-1,-1,-1,-1,-1,-1,-1,-1,-1,-1,-1,-1,-1],"loss_changes":[7.951803E4,1.153207E3,9.7590625E3,1.5639532E2,4.239453E2,1.8652188E3,1.7971287E3,7.115909E1,8.18255E1,1.3090527E2,1.17890625E2,2.3766895E2,3.2171074E3,0E0,8.728842E1,3.1721199E1,2.0996464E1,1.5314701E1,4.2694702E1,3.725937E1,2.8534668E1,4.7496094E1,2.95083E1,1.1320459E2,2.7115723E1,7.9643164E2,5.45988E3,0E0,2.129179E0,1.2314595E1,2.1225098E1,1.20456085E1,2.616728E0,6.4784966E0,1.2581381E1,1.884784E1,4.8211365E0,1.1833486E1,1.8529892E1,1.8978851E1,1.0287109E1,5.529297E0,2.71875E0,6.41626E0,0E0,3.9664307E2,6.7194336E1,2.2305664E1,1.3840637E1,3.412793E2,4.395668E1,3.669441E2,9.7153076E1,0E0,0E0,0E0,0E0,0E0,0E0,0E0,0E0,0E0,0E0,0E0,0E0,0E0,0E0,0E0,0E0,0E0,0E0,0E0,0E0,0E0,0E0,0E0,0E0,0E0,0E0,0E0,0E0,0E0,0E0,0E0,0E0,0E0,0E0,0E0,0E0,0E0,0E0,0E0,0E0,0E0,0E0,0E0,0E0,0E0,0E0,0E0,0E0],"parents":[2147483647,0,0,1,1,2,2,3,3,4,4,5,5,6,6,7,7,8,8,9,9,10,10,11,11,12,12,14,14,15,15,16,16,17,17,18,18,19,19,20,20,21,21,22,22,23,23,24,24,25,25,26,26,28,28,29,29,30,30,31,31,32,32,33,33,34,34,35,35,36,36,37,37,38,38,39,39,40,40,41,41,42,42,43,43,45,45,46,46,47,47,48,48,49,49,50,50,51,51,52,52],"right_children":[2,4,6,8,10,12,14,16,18,20,22,24,26,-1,28,30,32,34,36,38,40,42,44,46,48,50,52,-1,54,56,58,60,62,64,66,68,70,72,74,76,78,80,82,84,-1,86,88,90,92,94,96,98,100,-1,-1,-1,-1,-1,-1,-1,-1,-1,-1,-1,-1,-1,-1,-1,-1,-1,-1,-1,-1,-1,-1,-1,-1,-1,-1,-1,-1,-1,-1,-1,-1,-1,-1,-1,-1,-1,-1,-1,-1,-1,-1,-1,-1,-1,-1,-1,-1],"split_conditions":[3E1,1.1511004E2,8E1,1.7008078E0,1.3E1,1.1509307E2,9E1,1.535808E3,1.4E1,7E0,1.5559307E3,1.4151311E3,5E1,-9.983092E-2,9.5E1,6.0353252E1,1.6450771E3,4.1247845E-1,6.458266E0,9.9890186E2,8.944348E2,2.6E1,9.181842E0,6E1,1.648226E3,3.6E1,6E1,9.076403E-2,8.319488E0,1.2999408E3,8E0,4.2549343E1,1.5E1,1.6396964E3,8E0,5.999847E1,1.7E1,3.7487752E0,9.819808E0,1.1E1,1.475315E3,2.1128645E2,7.096405E0,1.8530491E3,-9.8511845E-2,5E1,2.7E1,4.5E1,6.035961E1,1.6520265E3,9.181842E0,1.543E3,7.750877E0,-8.563634E-2,-1.6606007E-2,-1.3238735E-3,-4.2770505E-2,-7.054459E-3,-5.3058572E-2,5.8477875E-2,1.8101182E-2,-6.811829E-3,-4.6076875E-2,-4.3136742E-2,1.3118665E-2,1.5713174E-2,-2.1764524E-2,-4.3136742E-2,-6.394828E-2,-4.3136742E-2,-8.9485064E-2,-2.0071037E-2,4.8225705E-2,-5.530537E-2,5.7445182E-3,-5.530537E-2,-7.683284E-2,-8.124104E-2,-6.8091266E-2,-8.242736E-2,-9.168772E-2,-9.657975E-2,-9.9757396E-2,-8.242736E-2,-9.136349E-2,6.9052964E-2,-2.6503224E-2,8.940039E-2,-2.2388117E-3,9.187485E-2,-7.615309E-3,7.3787436E-2,2.7359618E-2,5.5140257E-2,6.016255E-4,-3.8105503E-2,-9.65213E-2,-7.808855E-2,-2.591957E-2,8.514709E-2,-5.176763E-2],"split_indices":[7,6,7,0,3,6,7,8,3,3,8,8,7,0,7,6,8,2,0,8,8,3,0,7,8,3,7,0,4,8,3,6,3,8,3,6,3,0,4,3,8,6,0,6,0,7,3,3,6,8,0,8,0,0,0,0,0,0,0,0,0,0,0,0,0,0,0,0,0,0,0,0,0,0,0,0,0,0,0,0,0,0,0,0,0,0,0,0,0,0,0,0,0,0,0,0,0,0,0,0,0],"split_type":[0,0,0,0,0,0,0,0,0,0,0,0,0,0,0,0,0,0,0,0,0,0,0,0,0,0,0,0,0,0,0,0,0,0,0,0,0,0,0,0,0,0,0,0,0,0,0,0,0,0,0,0,0,0,0,0,0,0,0,0,0,0,0,0,0,0,0,0,0,0,0,0,0,0,0,0,0,0,0,0,0,0,0,0,0,0,0,0,0,0,0,0,0,0,0,0,0,0,0,0,0],"sum_hessian":[4.724696E4,1.6297236E4,3.0949725E4,9.769992E2,1.5320237E4,2.9520725E4,1.4289988E3,3.694997E2,6.074995E2,1.7062485E3,1.3613988E4,5.950495E3,2.357023E4,1.2772489E3,1.5174988E2,2.7499976E2,9.449992E1,1.6974986E2,4.3774963E2,2.5199979E2,1.4542488E3,1.179699E4,1.8169985E3,3.530997E3,2.419498E3,2.0896732E4,2.6734978E3,1.4374988E2,7.9999933E0,1.4274988E2,1.322499E2,7.549994E1,1.8999985E1,6.424995E1,1.0549991E2,3.0349976E2,1.342499E2,1.287499E2,1.232499E2,3.0924976E2,1.144999E3,2.1157483E3,9.681242E3,1.4959988E3,3.2099973E2,2.7584978E3,7.724993E2,2.298748E3,1.207499E2,2.0724232E4,1.7249986E2,1.6147487E3,1.0587491E3,5.999995E0,1.9999983E0,1.227499E2,1.9999983E1,3.3999973E1,9.8249916E1,3.624997E1,3.9249966E1,1.3499989E1,5.499995E0,5.949995E1,4.749996E0,3.0999973E1,7.449994E1,1.2374989E2,1.7974985E2,5.749995E0,1.284999E2,1.229999E2,5.749995E0,1.1099991E2,1.22499895E1,1.8024985E2,1.289999E2,9.149992E2,2.299998E2,2.739998E2,1.8417484E3,2.1014983E3,7.5797437E3,1.134249E3,3.617497E2,2.6457478E3,1.1274991E2,7.519994E2,2.0499983E1,2.293248E3,5.499995E0,9.9749916E1,2.0999983E1,2.0472482E4,2.5174979E2,1.292499E2,4.3249966E1,1.133249E3,4.814996E2,1.0462491E3,1.24999895E1],"tree_param":{"num_deleted":"0","num_feature":"13","num_nodes":"101","size_leaf_vector":"1"}},{"base_weights":[9.457307E-5,-1.7017587E0,8.9520794E-1,-6.968431E-1,-1.7658958E0,1.0126393E0,-1.5335654E0,-2.0881954E-1,-9.930237E-1,-1.3157766E0,-1.8222677E0,1.4894307E0,8.9230394E-1,-9.50926E-2,1.5564256E0,-4.531473E-1,4.9953017E-1,-4.308698E-1,-1.2097424E0,-6.812529E-1,-1.425305E0,-1.8580284E0,-1.5893055E0,1.3305677E0,1.720793E0,1.0178531E0,-8.971051E-2,8.642955E-2,-1.3838706E0,-1.4068763E-1,-7.869907E-1,7.232759E-1,-3.8106918E-1,-7.9545134E-1,-2.0353177E-1,-1.0045248E0,-1.6633394E0,-3.3122337E-1,-1.0532789E0,-1.155407E0,-1.4971641E0,-1.7426275E0,-9.462806E-2,-1.5690222E0,-9.384069E-2,1.2390319E0,1.6556554E0,1.7446567E0,1.2562995E0,1.0348015E0,-1.0129589E0,-1.1900955E0,1.5889935E0,-8.233892E-2,-1.5483274E-2,-1.2582134E-3,-4.0753417E-2,-6.711942E-3,-5.047061E-2,5.5676628E-2,1.7219728E-2,-2.5749972E-2,2.3376023E-2,2.8774142E-2,-4.101531E-2,-4.8363558E-4,-3.9057057E-2,-4.101531E-2,-6.083506E-2,-4.101531E-2,-8.5224435E-2,-1.9553376E-2,4.107288E-2,-5.266395E-2,3.8350894E-4,-5.266395E-2,-7.313482E-2,-7.566193E-2,-5.266395E-2,-7.8848176E-2,-8.8235185E-2,-7.845111E-2,-8.699926E-2,6.5676965E-2,-2.5194798E-2,8.510179E-2,-2.1320842E-3,8.746308E-2,-7.2932616E-3,7.02261E-2,2.6057914E-2,4.8300456E-2,6.307369E-2,-3.622941E-2,-9.2025205E-2,-7.430803E-2,-2.463106E-2,8.10365E-2,-4.9404364E-2],"categories":[],"categories_nodes":[],"categories_segments":[],"categories_sizes":[],"default_left":[0,0,0,0,0,0,0,0,0,0,0,0,0,0,0,0,0,0,0,0,0,0,0,0,0,0,0,0,0,0,0,0,0,0,0,0,0,0,0,0,0,0,0,0,0,0,0,0,0,0,0,0,0,0,0,0,0,0,0,0,0,0,0,0,0,0,0,0,0,0,0,0,0,0,0,0,0,0,0,0,0,0,0,0,0,0,0,0,0,0,0,0,0,0,0,0,0,0,0],"id":1,"left_children":[1,3,5,7,9,11,13,15,17,19,21,23,25,-1,27,29,31,33,35,37,39,41,43,45,47,49,51,-1,53,55,57,59,61,63,65,67,69,71,73,75,77,79,-1,81,-1,83,85,87,89,91,93,95,97,-1,-1,-1,-1,-1,-1,-1,-1,-1,-1,-1,-1,-1,-1,-1,-1,-1,-1,-1,-1,-1,-1,-1,-1,-1,-1,-1,-1,-1,-1,-1,-1,-1,-1,-1,-1,-1,-1,-1,-1,-1,-1,-1,-1,-1,-1],"loss_changes":[7.187487E4,1.0469297E3,8.820238E3,1.4105621E2,3.8547266E2,1.6908867E3,1.6262183E3,6.432785E1,7.354254E1,1.1751953E2,1.1019922E2,2.1612012E2,2.9039453E3,0E0,7.95672E1,2.86707E1,1.90851E1,1.3986929E1,3.9121582E1,3.4392662E1,2.645166E1,4.3609375E1,2.7220215E1,1.02918945E2,2.458545E1,7.1981836E2,4.9354062E3,0E0,2.0285187E0,1.1177784E1,1.9199715E1,1.0923187E1,2.5134213E0,6.1047554E0,1.1916433E1,1.737268E1,4.427643E0,9.649444E0,1.4031097E1,1.7415802E1,1.0022217E1,7.176758E0,0E0,5.4084473E0,0E0,3.5862158E2,6.0885498E1,2.0235352E1,1.2519989E1,3.2173242E2,4.0033188E1,3.3252466E2,8.812695E1,0E0,0E0,0E0,0E0,0E0,0E0,0E0,0E0,0E0,0E0,0E0,0E0,0E0,0E0,0E0,0E0,0E0,0E0,0E0,0E0,0E0,0E0,0E0,0E0,0E0,0E0,0E0,0E0,0E0,0E0,0E0,0E0,0E0,0E0,0E0,0E0,0E0,0E0,0E0,0E0,0E0,0E0,0E0,0E0,0E0,0E0],"parents":[2147483647,0,0,1,1,2,2,3,3,4,4,5,5,6,6,7,7,8,8,9,9,10,10,11,11,12,12,14,14,15,15,16,16,17,17,18,18,19,19,20,20,21,21,22,22,23,23,24,24,25,25,26,26,28,28,29,29,30,30,31,31,32,32,33,33,34,34,35,35,36,36,37,37,38,38,39,39,40,40,41,41,43,43,45,45,46,46,47,47,48,48,49,49,50,50,51,51,52,52],"right_children":[2,4,6,8,10,12,14,16,18,20,22,24,26,-1,28,30,32,34,36,38,40,42,44,46,48,50,52,-1,54,56,58,60,62,64,66,68,70,72,74,76,78,80,-1,82,-1,84,86,88,90,92,94,96,98,-1,-1,-1,-1,-1,-1,-1,-1,-1,-1,-1,-1,-1,-1,-1,-1,-1,-1,-1,-1,-1,-1,-1,-1,-1,-1,-1,-1,-1,-1,-1,-1,-1,-1,-1,-1,-1,-1,-1,-1,-1,-1,-1,-1,-1,-1],"split_conditions":[3E1,1.1511004E2,8E1,1.7008078E0,1.3E1,1.1509307E2,9E1,1.535808E3,1.4E1,7E0,1.5559307E3,1.4151311E3,5E1,-9.50926E-2,9.5E1,6.0353252E1,1.6450771E3,4.1247845E-1,6.458266E0,1.0195535E3,8.944348E2,3.3E1,9.181842E0,6E1,1.648226E3,3.6E1,6E1,8.642955E-2,1.2552644E3,1.2999408E3,8E0,4.2549343E1,9.387224E1,2.9997347E1,1.2E1,5.999847E1,1.7E1,3.7487752E0,2.56E2,1.1E1,4.9412355E0,2.0999454E2,-9.462806E-2,1.8530491E3,-9.384069E-2,5E1,2.7E1,4.5E1,6.035961E1,1.5559307E3,9.181842E0,1.543E3,7.750877E0,-8.233892E-2,-1.5483274E-2,-1.2582134E-3,-4.0753417E-2,-6.711942E-3,-5.047061E-2,5.5676628E-2,1.7219728E-2,-2.5749972E-2,2.3376023E-2,2.8774142E-2,-4.101531E-2,-4.8363558E-4,-3.9057057E-2,-4.101531E-2,-6.083506E-2,-4.101531E-2,-8.5224435E-2,-1.9553376E-2,4.107288E-2,-5.266395E-2,3.8350894E-4,-5.266395E-2,-7.313482E-2,-7.566193E-2,-5.266395E-2,-7.8848176E-2,-8.8235185E-2,-7.845111E-2,-8.699926E-2,6.5676965E-2,-2.5194798E-2,8.510179E-2,-2.1320842E-3,8.746308E-2,-7.2932616E-3,7.02261E-2,2.6057914E-2,4.8300456E-2,6.307369E-2,-3.622941E-2,-9.2025205E-2,-7.430803E-2,-2.463106E-2,8.10365E-2,-4.9404364E-2],"split_indices":[7,6,7,0,3,6,7,8,3,3,8,8,7,0,7,6,8,2,0,8,8,3,0,7,8,3,7,0,8,8,3,6,11,6,3,6,3,0,5,3,0,6,0,6,0,7,3,3,6,8,0,8,0,0,0,0,0,0,0,0,0,0,0,0,0,0,0,0,0,0,0,0,0,0,0,0,0,0,0,0,0,0,0,0,0,0,0,0,0,0,0,0,0,0,0,0,0,0,0],"split_type":[0,0,0,0,0,0,0,0,0,0,0,0,0,0,0,0,0,0,0,0,0,0,0,0,0,0,0,0,0,0,0,0,0,0,0,0,0,0,0,0,0,0,0,0,0,0,0,0,0,0,0,0,0,0,0,0,0,0,0,0,0,0,0,0,0,0,0,0,0,0,0,0,0,0,0,0,0,0,0,0,0,0,0,0,0,0,0,0,0,0,0,0,0,0,0,0,0,0,0],"sum_hessian":[4.718006E4,1.6261546E4,3.0918512E4,9.76311E2,1.5285234E4,2.9493102E4,1.4254106E3,3.6938007E2,6.0693085E2,1.7039381E3,1.3581297E4,5.941274E3,2.3551826E4,1.2739562E3,1.5145444E2,2.7491516E2,9.446492E1,1.6970795E2,4.3722293E2,2.5189162E2,1.4520465E3,1.1767897E4,1.8133992E3,3.5265496E3,2.414724E3,2.0882049E4,2.669777E3,1.4346606E2,7.988372E0,1.4273976E2,1.3217538E2,7.546832E1,1.8996595E1,6.42198E1,1.0548815E2,3.0324326E2,1.3397966E2,1.3422809E2,1.1766352E2,3.0890372E2,1.1431428E3,2.7222378E3,9.045659E3,1.4932056E3,3.201935E2,2.7554897E3,7.710597E2,2.2941067E3,1.2061752E2,2.0709705E4,1.723441E2,1.6128502E3,1.056927E3,5.989454E0,1.9989177E0,1.227497E2,1.9990063E1,3.3999332E1,9.817606E1,3.6220924E1,3.92474E1,1.6746637E1,2.249958E0,2.4995654E0,6.1720234E1,7.974173E1,2.574642E1,1.236875E2,1.7955577E2,5.747096E0,1.2823256E2,1.2823138E2,5.9967017E0,1.051656E2,1.2497923E1,1.8010303E2,1.2880069E2,1.1171859E3,2.5956964E1,3.286217E2,2.393616E3,1.1322397E3,3.6096588E2,2.6427625E3,1.1272739E2,7.505598E2,2.0499914E1,2.288607E3,5.4998775E0,9.962095E1,2.0996574E1,1.5891952E4,4.817754E3,1.291985E2,4.31456E1,1.1314427E3,4.8140738E2,1.0444359E3,1.2491031E1],"tree_param":{"num_deleted":"0","num_feature":"13","num_nodes":"99","size_leaf_vector":"1"}},{"base_weights":[1.8540598E-4,-1.6262273E0,8.5296667E-1,-6.628485E-1,-1.6879821E0,9.646805E-1,-1.4673239E0,-1.9863921E-1,-9.4503546E-1,-1.0677195E0,-1.7260884E0,1.3631086E0,8.318707E-1,-9.099811E-2,1.4869857E0,-4.3122107E-1,4.7581744E-1,-4.1059998E-1,-1.1516147E0,-3.8561982E-1,-1.1820368E0,-1.5730121E0,-1.7948903E0,1.2162709E0,1.6018345E0,9.537856E-1,-1.4090858E-1,8.261535E-2,-1.3302486E0,-1.339738E-1,-7.4922687E-1,9.783651E-1,1.1250284E-1,-7.586883E-1,-1.9376957E-1,-9.541682E-1,-1.5895048E0,-1.6309482E-1,-7.8382826E-1,-7.8382826E-1,-1.287041E0,-1.6337662E0,-1.396904E0,-1.8119636E0,-1.6839511E0,1.1333044E0,1.5739387E0,1.637252E0,1.1236166E0,9.708229E-1,-1.009377E0,-1.1496882E0,1.510703E0,-7.916064E-2,-1.497069E-2,-1.1958148E-3,-3.8862918E-2,-6.386202E-3,-4.807083E-2,1.4930754E-2,6.012078E-2,3.513124E-2,-1.3855656E-2,-3.9055366E-2,1.3212057E-2,1.4976135E-2,-2.0017995E-2,-3.9055366E-2,-5.7982415E-2,-3.9055366E-2,-8.146616E-2,-1.1487643E-2,7.04947E-2,-2.0818552E-4,-3.9191414E-2,-6.6138186E-2,-3.9191414E-2,-6.6567056E-2,-3.9191414E-2,-7.491925E-2,-8.339541E-2,-6.98452E-2,-7.757644E-2,-8.419756E-2,-9.0710185E-2,-8.419756E-2,-9.02151E-2,6.104821E-2,-3.387777E-2,8.0667704E-2,2.1404913E-3,8.412432E-2,6.9968864E-2,6.5766506E-2,2.385767E-3,6.1851967E-2,4.4980258E-2,-9.543959E-3,-6.303921E-2,-7.183064E-2,-2.382329E-2,7.709368E-2,-5.630801E-2],"categories":[],"categories_nodes":[],"categories_segments":[],"categories_sizes":[],"default_left":[0,0,0,0,0,0,0,0,0,0,0,0,0,0,0,0,0,0,0,0,0,0,0,0,0,0,0,0,0,0,0,0,0,0,0,0,0,0,0,0,0,0,0,0,0,0,0,0,0,0,0,0,0,0,0,0,0,0,0,0,0,0,0,0,0,0,0,0,0,0,0,0,0,0,0,0,0,0,0,0,0,0,0,0,0,0,0,0,0,0,0,0,0,0,0,0,0,0,0,0,0,0,0],"id":2,"left_children":[1,3,5,7,9,11,13,15,17,19,21,23,25,-1,27,29,31,33,35,37,39,41,43,45,47,49,51,-1,53,55,57,59,61,63,65,67,69,71,73,75,77,79,81,83,85,87,89,91,93,95,97,99,101,-1,-1,-1,-1,-1,-1,-1,-1,-1,-1,-1,-1,-1,-1,-1,-1,-1,-1,-1,-1,-1,-1,-1,-1,-1,-1,-1,-1,-1,-1,-1,-1,-1,-1,-1,-1,-1,-1,-1,-1,-1,-1,-1,-1,-1,-1,-1,-1,-1,-1],"loss_changes":[6.518147E4,9.606133E2,7.9928613E3,1.27591E2,3.5720703E2,1.5553457E3,1.4785012E3,5.825403E1,6.647601E1,6.830817E1,1.4788672E2,2.5577246E2,2.6167842E3,0E0,7.280914E1,2.5959484E1,1.7301762E1,1.27297E1,3.624872E1,1.32465515E1,3.957373E1,4.8813477E1,2.1123047E1,1.3342139E2,4.553076E1,6.567539E2,4.09714E3,0E0,1.8617678E0,1.0156049E1,1.741359E1,5.7153053E0,1.3180482E1,5.6389694E0,1.0969835E1,1.6095764E1,4.115692E0,9.622004E0,5.792429E0,7.142143E-1,1.3863281E1,1.3041016E1,1.4255615E1,1.3476562E-1,5.344238E-1,5.884756E2,5.1549805E1,2.5641113E1,4.0373535E1,3.6742383E2,3.4572693E1,2.9419348E2,7.8380615E1,0E0,0E0,0E0,0E0,0E0,0E0,0E0,0E0,0E0,0E0,0E0,0E0,0E0,0E0,0E0,0E0,0E0,0E0,0E0,0E0,0E0,0E0,0E0,0E0,0E0,0E0,0E0,0E0,0E0,0E0,0E0,0E0,0E0,0E0,0E0,0E0,0E0,0E0,0E0,0E0,0E0,0E0,0E0,0E0,0E0,0E0,0E0,0E0,0E0,0E0],"parents":[2147483647,0,0,1,1,2,2,3,3,4,4,5,5,6,6,7,7,8,8,9,9,10,10,11,11,12,12,14,14,15,15,16,16,17,17,18,18,19,19,20,20,21,21,22,22,23,23,24,24,25,25,26,26,28,28,29,29,30,30,31,31,32,32,33,33,34,34,35,35,36,36,37,37,38,38,39,39,40,40,41,41,42,42,43,43,44,44,45,45,46,46,47,47,48,48,49,49,50,50,51,51,52,52],"right_children":[2,4,6,8,10,12,14,16,18,20,22,24,26,-1,28,30,32,34,36,38,40,42,44,46,48,50,52,-1,54,56,58,60,62,64,66,68,70,72,74,76,78,80,82,84,86,88,90,92,94,96,98,100,102,-1,-1,-1,-1,-1,-1,-1,-1,-1,-1,-1,-1,-1,-1,-1,-1,-1,-1,-1,-1,-1,-1,-1,-1,-1,-1,-1,-1,-1,-1,-1,-1,-1,-1,-1,-1,-1,-1,-1,-1,-1,-1,-1,-1,-1,-1,-1,-1,-1,-1],"split_conditions":[3E1,1.1511004E2,8E1,1.7008078E0,1E1,1.4547844E2,9E1,1.535808E3,1.4E1,6E0,3.3E1,1.4438655E3,5E1,-9.099811E-2,9.5E1,6.0353252E1,4.2549343E1,4.1247845E-1,6.458266E0,1.1534982E3,8.7972375E2,1.543E3,1.543E3,6E1,1.6423553E3,3.6E1,6E1,8.261535E-2,1.2552644E3,1.2999408E3,8E0,6.950145E1,7.958128E-1,1.6396964E3,8E0,5.999847E1,1.7E1,3.5310006E0,2.476635E2,3.9929638E1,2.7093384E0,1.3E1,1.6091057E3,1.8799515E2,9.181842E0,5E1,2.7E1,1.7598147E0,9.0538376E1,8.8701746E2,4E1,1.543E3,8.108887E0,-7.916064E-2,-1.497069E-2,-1.1958148E-3,-3.8862918E-2,-6.386202E-3,-4.807083E-2,1.4930754E-2,6.012078E-2,3.513124E-2,-1.3855656E-2,-3.9055366E-2,1.3212057E-2,1.4976135E-2,-2.0017995E-2,-3.9055366E-2,-5.7982415E-2,-3.9055366E-2,-8.146616E-2,-1.1487643E-2,7.04947E-2,-2.0818552E-4,-3.9191414E-2,-6.6138186E-2,-3.9191414E-2,-6.6567056E-2,-3.9191414E-2,-7.491925E-2,-8.339541E-2,-6.98452E-2,-7.757644E-2,-8.419756E-2,-9.0710185E-2,-8.419756E-2,-9.02151E-2,6.104821E-2,-3.387777E-2,8.0667704E-2,2.1404913E-3,8.412432E-2,6.9968864E-2,6.5766506E-2,2.385767E-3,6.1851967E-2,4.4980258E-2,-9.543959E-3,-6.303921E-2,-7.183064E-2,-2.382329E-2,7.709368E-2,-5.630801E-2],"split_indices":[7,6,7,0,3,6,7,8,3,3,3,8,7,0,7,6,6,2,0,8,8,8,8,7,8,3,7,0,8,8,3,10,0,8,3,6,3,0,6,1,0,3,8,6,0,7,3,0,6,8,3,8,0,0,0,0,0,0,0,0,0,0,0,0,0,0,0,0,0,0,0,0,0,0,0,0,0,0,0,0,0,0,0,0,0,0,0,0,0,0,0,0,0,0,0,0,0,0,0,0,0,0,0],"split_type":[0,0,0,0,0,0,0,0,0,0,0,0,0,0,0,0,0,0,0,0,0,0,0,0,0,0,0,0,0,0,0,0,0,0,0,0,0,0,0,0,0,0,0,0,0,0,0,0,0,0,0,0,0,0,0,0,0,0,0,0,0,0,0,0,0,0,0,0,0,0,0,0,0,0,0,0,0,0,0,0,0,0,0,0,0,0,0,0,0,0,0,0,0,0,0,0,0,0,0,0,0,0,0],"sum_hessian":[4.6993445E4,1.6164269E4,3.0829176E4,9.74456E2,1.51898125E4,2.9413598E4,1.4155773E3,3.6905283E2,6.054032E2,8.80864E2,1.4308948E4,7.351104E3,2.2062494E4,1.2649694E3,1.5060788E2,2.7468887E2,9.4363976E1,1.6960646E2,4.3579672E2,1.2706651E2,7.5379755E2,4.4444355E3,9.864513E3,4.5552886E3,2.7958157E3,1.9605436E4,2.4570598E3,1.4265036E2,7.9575276E0,1.4271303E2,1.3197583E2,3.888466E1,5.5479313E1,6.414017E1,1.054663E2,3.0255325E2,1.3324345E2,8.7677795E1,3.9388714E1,1.2343168E2,6.3036584E2,3.3612625E3,1.0831731E3,8.870354E3,9.9415924E2,3.7009617E3,8.5432666E2,2.6007751E3,1.9504051E2,1.9437254E4,1.681806E2,1.525569E3,9.3149084E2,5.959281E0,1.9982466E0,1.227494E2,1.9963625E1,3.3997932E1,9.79779E1,1.0217731E1,2.8666927E1,2.1743181E1,3.3736134E1,5.939153E1,4.7486353E0,3.0998608E1,7.446769E1,1.2352162E2,1.7903165E2,5.7393885E0,1.2750407E2,8.493257E1,2.745222E0,9.973679E0,2.9415037E1,1.2467837E1,1.10963844E2,5.806256E2,4.9740234E1,6.859986E2,2.675264E3,3.9772937E2,6.854437E2,1.27536736E2,8.742816E3,6.35066E2,3.5909326E2,3.530389E3,1.705729E2,8.3283356E2,2.149308E1,2.1801282E3,4.206469E2,1.6535378E2,2.9686739E1,4.0989087E3,1.5338346E4,3.993261E1,1.28248E2,1.0688822E3,4.566868E2,9.210186E2,1.0472204E1],"tree_param":{"num_deleted":"0","num_feature":"13","num_nodes":"103","size_leaf_vector":"1"}},{"base_weights":[3.4359112E-4,-1.5590323E0,8.140504E-1,-6.3115823E-1,-1.6189175E0,9.204065E-1,-1.4094481E0,-4.8821747E-1,-1.4700465E0,-1.1973523E0,-1.6721076E0,1.3617284E0,8.0963594E-1,-8.7427884E-2,1.4252299E0,-1.7312664E-1,-7.615914E-1,-5.706006E-1,-1.5624281E0,-6.147264E-1,-1.298677E0,-1.7067719E0,-1.4470698E0,1.2139398E0,1.57806E0,9.2323893E-1,-8.3065026E-2,7.922866E-2,-1.2813851E0,-3.0808482E-1,5.0860935E-1,6.348622E-2,-8.9696556E-1,-9.036797E-1,5.497482E-1,-1.3470254E0,-1.6848984E0,-2.6982534E-1,-9.567017E-1,-1.0399461E0,-1.3678113E0,-1.5484838E0,-1.730099E0,-1.4347299E0,-8.626797E-2,1.1293551E0,1.5160662E0,1.6006844E0,1.1407224E0,9.386216E-1,-9.2112505E-1,-1.085129E0,1.4528531E0,-7.650425E-2,-1.3972478E-2,8.255231E-4,-2.3266265E-2,4.9455028E-2,-1.5996277E-2,2.087539E-2,-1.369177E-2,-5.2170392E-2,-2.269092E-2,-3.156686E-3,-5.332572E-2,6.457907E-2,-3.0157557E-2,-7.358017E-2,-5.332572E-2,-5.332572E-2,-8.600332E-2,-4.7835086E-2,-8.144646E-3,-4.7835086E-2,7.5538615E-3,-4.7835086E-2,-6.6564344E-2,-7.090287E-2,-5.814258E-2,-8.1964575E-2,-7.486882E-2,-8.1964575E-2,-8.689641E-2,-7.17365E-2,-7.989558E-2,5.985721E-2,-2.230695E-2,7.796212E-2,-2.1324763E-3,8.0970384E-2,5.478368E-2,6.412089E-2,2.2244252E-2,4.7620416E-2,4.3741317E-4,-3.238999E-2,-8.569745E-2,-6.78785E-2,-2.2476353E-2,7.4112415E-2,-4.5690745E-2],"categories":[],"categories_nodes":[],"categories_segments":[],"categories_sizes":[],"default_left":[0,0,0,0,0,0,0,0,0,0,0,0,0,0,0,0,0,0,0,0,0,0,0,0,0,0,0,0,0,0,0,0,0,0,0,0,0,0,0,0,0,0,0,0,0,0,0,0,0,0,0,0,0,0,0,0,0,0,0,0,0,0,0,0,0,0,0,0,0,0,0,0,0,0,0,0,0,0,0,0,0,0,0,0,0,0,0,0,0,0,0,0,0,0,0,0,0,0,0,0,0],"id":3,"left_children":[1,3,5,7,9,11,13,15,17,19,21,23,25,-1,27,29,31,33,35,37,39,41,43,45,47,49,51,-1,53,55,57,59,61,63,65,67,69,71,73,75,77,79,81,83,-1,85,87,89,91,93,95,97,99,-1,-1,-1,-1,-1,-1,-1,-1,-1,-1,-1,-1,-1,-1,-1,-1,-1,-1,-1,-1,-1,-1,-1,-1,-1,-1,-1,-1,-1,-1,-1,-1,-1,-1,-1,-1,-1,-1,-1,-1,-1,-1,-1,-1,-1,-1,-1,-1],"loss_changes":[5.9266254E4,8.8889844E2,7.2594434E3,1.1591083E2,3.3532812E2,1.4308301E3,1.3496746E3,7.157941E1,1.0833099E1,9.891113E1,1.0171875E2,1.8593262E2,2.3748857E3,0E0,6.684912E1,3.585911E1,4.9813904E1,5.9890547E0,1.0909119E0,3.0720161E1,2.4297363E1,4.0035156E1,2.4329102E1,8.7606445E1,2.1737305E1,5.902344E2,4.0717021E3,0E0,1.7923756E0,1.6572235E1,2.5994696E1,7.72406E0,2.4365326E1,2.3191986E0,4.1954904E0,1.2551041E0,6.3476562E-3,9.687537E0,1.53066025E1,1.4965027E1,1.0003906E1,4.629883E0,5.7382812E0,4.0129395E0,0E0,2.9258813E2,5.1319214E1,1.9612793E1,1.1321884E1,3.0859766E2,3.6233566E1,2.766173E2,7.402246E1,0E0,0E0,0E0,0E0,0E0,0E0,0E0,0E0,0E0,0E0,0E0,0E0,0E0,0E0,0E0,0E0,0E0,0E0,0E0,0E0,0E0,0E0,0E0,0E0,0E0,0E0,0E0,0E0,0E0,0E0,0E0,0E0,0E0,0E0,0E0,0E0,0E0,0E0,0E0,0E0,0E0,0E0,0E0,0E0,0E0,0E0,0E0,0E0],"parents":[2147483647,0,0,1,1,2,2,3,3,4,4,5,5,6,6,7,7,8,8,9,9,10,10,11,11,12,12,14,14,15,15,16,16,17,17,18,18,19,19,20,20,21,21,22,22,23,23,24,24,25,25,26,26,28,28,29,29,30,30,31,31,32,32,33,33,34,34,35,35,36,36,37,37,38,38,39,39,40,40,41,41,42,42,43,43,45,45,46,46,47,47,48,48,49,49,50,50,51,51,52,52],"right_children":[2,4,6,8,10,12,14,16,18,20,22,24,26,-1,28,30,32,34,36,38,40,42,44,46,48,50,52,-1,54,56,58,60,62,64,66,68,70,72,74,76,78,80,82,84,-1,86,88,90,92,94,96,98,100,-1,-1,-1,-1,-1,-1,-1,-1,-1,-1,-1,-1,-1,-1,-1,-1,-1,-1,-1,-1,-1,-1,-1,-1,-1,-1,-1,-1,-1,-1,-1,-1,-1,-1,-1,-1,-1,-1,-1,-1,-1,-1,-1,-1,-1,-1,-1,-1],"split_conditions":[3E1,1.1511004E2,8E1,6.458266E0,1.3E1,1.1509307E2,9E1,5.999847E1,1.7E1,7E0,1.5559307E3,1.4151311E3,5E1,-8.7427884E-2,9.5E1,1.6058473E3,8E0,8.510749E1,9.181842E0,9.9890186E2,8.944348E2,2.1E1,9.181842E0,6E1,1.648226E3,3.6E1,6E1,7.922866E-2,8.319488E0,1E1,1.9233885E0,8.5098976E1,1.4290045E3,3.0176767E1,1.3E1,1E1,2.1E1,1.820228E1,9.819808E0,1.1E1,1.475315E3,-4.8051864E-1,3.202108E2,1.8530491E3,-8.626797E-2,5E1,2.7E1,2.7E1,6.035961E1,1.6520265E3,9.181842E0,1.543E3,7.750877E0,-7.650425E-2,-1.3972478E-2,8.255231E-4,-2.3266265E-2,4.9455028E-2,-1.5996277E-2,2.087539E-2,-1.369177E-2,-5.2170392E-2,-2.269092E-2,-3.156686E-3,-5.332572E-2,6.457907E-2,-3.0157557E-2,-7.358017E-2,-5.332572E-2,-5.332572E-2,-8.600332E-2,-4.7835086E-2,-8.144646E-3,-4.7835086E-2,7.5538615E-3,-4.7835086E-2,-6.6564344E-2,-7.090287E-2,-5.814258E-2,-8.1964575E-2,-7.486882E-2,-8.1964575E-2,-8.689641E-2,-7.17365E-2,-7.989558E-2,5.985721E-2,-2.230695E-2,7.796212E-2,-2.1324763E-3,8.0970384E-2,5.478368E-2,6.412089E-2,2.2244252E-2,4.7620416E-2,4.3741317E-4,-3.238999E-2,-8.569745E-2,-6.78785E-2,-2.2476353E-2,7.4112415E-2,-4.5690745E-2],"split_indices":[7,6,7,0,3,6,7,6,3,3,8,8,7,0,7,8,3,6,0,8,8,3,0,7,8,3,7,0,4,3,0,6,8,6,3,5,3,11,4,3,8,2,6,6,0,7,3,3,6,8,0,8,0,0,0,0,0,0,0,0,0,0,0,0,0,0,0,0,0,0,0,0,0,0,0,0,0,0,0,0,0,0,0,0,0,0,0,0,0,0,0,0,0,0,0,0,0,0,0,0,0],"split_type":[0,0,0,0,0,0,0,0,0,0,0,0,0,0,0,0,0,0,0,0,0,0,0,0,0,0,0,0,0,0,0,0,0,0,0,0,0,0,0,0,0,0,0,0,0,0,0,0,0,0,0,0,0,0,0,0,0,0,0,0,0,0,0,0,0,0,0,0,0,0,0,0,0,0,0,0,0,0,0,0,0,0,0,0,0,0,0,0,0,0,0,0,0,0,0,0,0,0,0,0,0],"sum_hessian":[4.6705723E4,1.601462E4,3.0691102E4,9.716232E2,1.5042997E4,2.9290635E4,1.4004664E3,8.3151996E2,1.4010324E2,1.6880046E3,1.3354993E4,5.874541E3,2.3416096E4,1.2511731E3,1.4929335E2,3.8704504E2,4.4447488E2,1.371805E1,1.2638519E2,2.5111845E2,1.4368861E3,1.1566702E4,1.7882903E3,3.494118E3,2.3804229E3,2.077259E4,2.6435044E3,1.4138435E2,7.9089975E0,3.2354364E2,6.350143E1,6.272289E1,3.81752E2,1.0723388E1,2.9946628E0,5.016066E1,7.622453E1,1.2854659E2,1.2257188E2,3.063674E2,1.1305187E3,1.4943132E3,1.007239E4,1.473659E3,3.1463116E2,2.7335571E3,7.6056085E2,2.2608062E3,1.1961657E2,2.060126E4,1.7133073E2,1.599955E3,1.0435494E3,5.913918E0,1.9950795E0,1.0587608E2,2.1766754E2,4.0069935E1,2.34315E1,3.0487898E1,3.2234993E1,2.8591434E2,9.583768E1,2.742154E0,7.9812336E0,1.7489871E0,1.2456757E0,3.8112267E1,1.2048394E1,5.409483E0,7.081505E1,1.572482E1,1.1282176E2,1.1033144E2,1.2240435E1,1.7901082E2,1.27356575E2,9.031838E2,2.2733496E2,5.197669E2,9.745463E2,6.695902E2,9.402799E3,1.1179564E3,3.5570273E2,2.6210222E3,1.1253498E2,7.400609E2,2.0499916E1,2.1778557E3,8.2950485E1,9.8679245E1,2.0937326E1,2.0350209E4,2.5105164E2,1.2875847E2,4.257227E1,1.119124E3,4.80831E2,1.0311161E3,1.2433275E1],"tree_param":{"num_deleted":"0","num_feature":"13","num_nodes":"101","size_leaf_vector":"1"}},{"base_weights":[3.2198624E-4,-1.4992002E0,7.779495E-1,-6.0197085E-1,-1.5576489E0,8.7927204E-1,-1.3584784E0,-1.7275599E-1,-8.643181E-1,-1.1460987E0,-1.6098882E0,1.2509984E0,7.5619215E-1,-8.4290296E-2,1.3698593E0,-3.863584E-1,4.4629163E-1,-1.7435102E-1,-1.0016387E0,-5.888156E-1,-1.2436138E0,-1.6443583E0,-1.3867395E0,1.1127691E0,1.4772145E0,8.6646396E-1,-1.2949878E-1,7.619719E-2,-1.2364634E0,-1.1497619E-1,-6.782663E-1,6.547546E-1,-3.7063143E-1,-2.508749E-1,1.2713027E0,-8.3311033E-1,-1.4487351E0,-2.570657E-1,-9.162147E-1,-1.3020486E0,-9.358548E-1,-1.51622E0,-1.6723424E0,-1.3779935E0,-8.314634E-2,1.0355012E0,1.4487549E0,1.5110976E0,1.0232048E0,8.8196695E-1,-9.218284E-1,-1.0506278E0,1.3884214E0,-7.391008E-2,-1.3508639E-2,-4.8065349E-4,-3.6647245E-2,-6.090813E-3,-4.3480244E-2,4.968424E-2,1.6372977E-2,-6.2451367E-3,-4.310804E-2,-2.9399741E-2,-1.5182517E-3,2.5510697E-2,7.6025076E-2,-2.9399741E-2,-5.2971184E-2,-3.4748606E-2,-7.513748E-2,-1.5882375E-2,4.4704773E-2,-4.5810737E-2,1.3350964E-2,-5.6533832E-2,-6.846416E-2,-4.5810737E-2,-5.678888E-2,-6.8899676E-2,-7.6960005E-2,-8.1464864E-2,-8.434553E-2,-6.8899676E-2,-7.6840274E-2,5.57818E-2,-3.0509701E-2,-5.2334875E-2,7.346456E-2,7.7491686E-2,6.2196184E-2,6.0151767E-2,1.3217573E-3,5.6883823E-2,4.068358E-2,-7.437255E-3,-5.807051E-2,-6.591841E-2,-2.1552715E-2,7.146497E-2,-1.932724E-2],"categories":[],"categories_nodes":[],"categories_segments":[],"categories_sizes":[],"default_left":[0,0,0,0,0,0,0,0,0,0,0,0,0,0,0,0,0,0,0,0,0,0,0,0,0,0,0,0,0,0,0,0,0,0,0,0,0,0,0,0,0,0,0,0,0,0,0,0,0,0,0,0,0,0,0,0,0,0,0,0,0,0,0,0,0,0,0,0,0,0,0,0,0,0,0,0,0,0,0,0,0,0,0,0,0,0,0,0,0,0,0,0,0,0,0,0,0,0,0,0,0],"id":4,"left_children":[1,3,5,7,9,11,13,15,17,19,21,23,25,-1,27,29,31,33,35,37,39,41,43,45,47,49,51,-1,53,55,57,59,61,63,65,67,69,71,73,75,77,79,81,83,-1,85,87,89,91,93,95,97,99,-1,-1,-1,-1,-1,-1,-1,-1,-1,-1,-1,-1,-1,-1,-1,-1,-1,-1,-1,-1,-1,-1,-1,-1,-1,-1,-1,-1,-1,-1,-1,-1,-1,-1,-1,-1,-1,-1,-1,-1,-1,-1,-1,-1,-1,-1,-1,-1],"loss_changes":[5.402937E4,8.2884375E2,6.6060137E3,1.0900238E2,3.1751953E2,1.3318438E3,1.2364517E3,4.896214E1,5.6803253E1,9.03811E1,9.908984E1,2.248916E2,2.1377656E3,0E0,6.155536E1,2.1695831E1,1.6441198E1,1.1495773E1,3.6568115E1,2.8448708E1,2.4427002E1,3.8378906E1,2.323706E1,1.1534668E2,4.0676758E1,5.4043066E2,3.3909724E3,0E0,1.6669683E0,9.345548E0,1.3971249E1,8.121086E0,2.305113E0,9.236726E0,7.827797E-1,2.4303314E1,4.48822E0,9.313831E0,1.416214E1,1.2231445E1,4.427475E0,5.3129883E0,3.1191406E0,3.1796875E0,0E0,4.8372266E2,4.4536377E1,2.4483887E1,3.469095E1,3.3607715E2,3.0902023E1,2.4979285E2,6.701099E1,0E0,0E0,0E0,0E0,0E0,0E0,0E0,0E0,0E0,0E0,0E0,0E0,0E0,0E0,0E0,0E0,0E0,0E0,0E0,0E0,0E0,0E0,0E0,0E0,0E0,0E0,0E0,0E0,0E0,0E0,0E0,0E0,0E0,0E0,0E0,0E0,0E0,0E0,0E0,0E0,0E0,0E0,0E0,0E0,0E0,0E0,0E0,0E0],"parents":[2147483647,0,0,1,1,2,2,3,3,4,4,5,5,6,6,7,7,8,8,9,9,10,10,11,11,12,12,14,14,15,15,16,16,17,17,18,18,19,19,20,20,21,21,22,22,23,23,24,24,25,25,26,26,28,28,29,29,30,30,31,31,32,32,33,33,34,34,35,35,36,36,37,37,38,38,39,39,40,40,41,41,42,42,43,43,45,45,46,46,47,47,48,48,49,49,50,50,51,51,52,52],"right_children":[2,4,6,8,10,12,14,16,18,20,22,24,26,-1,28,30,32,34,36,38,40,42,44,46,48,50,52,-1,54,56,58,60,62,64,66,68,70,72,74,76,78,80,82,84,-1,86,88,90,92,94,96,98,100,-1,-1,-1,-1,-1,-1,-1,-1,-1,-1,-1,-1,-1,-1,-1,-1,-1,-1,-1,-1,-1,-1,-1,-1,-1,-1,-1,-1,-1,-1,-1,-1,-1,-1,-1,-1,-1,-1,-1,-1,-1,-1,-1,-1,-1,-1,-1,-1],"split_conditions":[3E1,1.1511004E2,8E1,1.7008078E0,1.3E1,1.4547844E2,9E1,1.535808E3,1.1E1,7E0,1.5559307E3,1.4438655E3,5E1,-8.4290296E-2,9.5E1,6.0353252E1,1.6450771E3,2.900151E2,6.458266E0,9.9890186E2,2.5250583E0,2.6E1,9.181842E0,6E1,1.6423553E3,3.6E1,6E1,7.619719E-2,1.2552644E3,1.2999408E3,8E0,4.2549343E1,1.5E1,4.0351236E-1,4.882484E-1,5.999847E1,1.7E1,3.7487752E0,5.49E2,9E0,1.1E1,2.1128645E2,8.108887E0,1.8530491E3,-8.314634E-2,5E1,3.0520456E0,2.039092E0,9.0538376E1,8.8701746E2,4E1,1.543E3,5.8965945E0,-7.391008E-2,-1.3508639E-2,-4.8065349E-4,-3.6647245E-2,-6.090813E-3,-4.3480244E-2,4.968424E-2,1.6372977E-2,-6.2451367E-3,-4.310804E-2,-2.9399741E-2,-1.5182517E-3,2.5510697E-2,7.6025076E-2,-2.9399741E-2,-5.2971184E-2,-3.4748606E-2,-7.513748E-2,-1.5882375E-2,4.4704773E-2,-4.5810737E-2,1.3350964E-2,-5.6533832E-2,-6.846416E-2,-4.5810737E-2,-5.678888E-2,-6.8899676E-2,-7.6960005E-2,-8.1464864E-2,-8.434553E-2,-6.8899676E-2,-7.6840274E-2,5.57818E-2,-3.0509701E-2,-5.2334875E-2,7.346456E-2,7.7491686E-2,6.2196184E-2,6.0151767E-2,1.3217573E-3,5.6883823E-2,4.068358E-2,-7.437255E-3,-5.807051E-2,-6.591841E-2,-2.1552715E-2,7.146497E-2,-1.932724E-2],"split_indices":[7,6,7,0,3,6,7,8,3,3,8,8,7,0,7,6,8,10,0,8,0,3,0,7,8,3,7,0,8,8,3,6,3,2,2,6,3,0,5,3,3,6,0,6,0,7,4,0,6,8,3,8,0,0,0,0,0,0,0,0,0,0,0,0,0,0,0,0,0,0,0,0,0,0,0,0,0,0,0,0,0,0,0,0,0,0,0,0,0,0,0,0,0,0,0,0,0,0,0,0,0],"split_type":[0,0,0,0,0,0,0,0,0,0,0,0,0,0,0,0,0,0,0,0,0,0,0,0,0,0,0,0,0,0,0,0,0,0,0,0,0,0,0,0,0,0,0,0,0,0,0,0,0,0,0,0,0,0,0,0,0,0,0,0,0,0,0,0,0,0,0,0,0,0,0,0,0,0,0,0,0,0,0,0,0,0,0,0,0,0,0,0,0,0,0,0,0,0,0,0,0,0,0,0,0],"sum_hessian":[4.633259E4,1.5821873E4,3.0510717E4,9.6834686E2,1.4853526E4,2.9129791E4,1.3809254E3,3.679759E2,6.003709E2,1.6756215E3,1.3177905E4,7.2435728E3,2.1886219E4,1.2333398E3,1.475856E2,2.738573E2,9.41186E1,1.00031654E2,5.003393E2,2.5058817E2,1.4250333E3,1.1409151E4,1.7687533E3,4.4998574E3,2.7437156E3,1.9463021E4,2.4231973E3,1.3973956E2,7.8460417E0,1.426405E2,1.312168E2,7.5142265E1,1.897634E1,9.578771E1,4.243942E0,3.654501E2,1.3488918E2,1.2847954E2,1.2210862E2,1.1949207E3,2.301127E2,2.0549275E3,9.354225E3,1.4584857E3,3.1026752E2,3.6618179E3,8.3803955E2,2.551004E3,1.927117E2,1.9296246E4,1.6677527E2,1.5082465E3,9.1495087E2,5.8522167E0,1.9938246E0,1.227306E2,1.99099E1,3.3993557E1,9.722324E1,3.5914726E1,3.9227535E1,1.3487625E1,5.4887147E0,3.059603E1,6.519169E1,1.2459408E0,2.9980009E0,1.5647485E2,2.0897525E2,9.946986E0,1.2494219E2,1.22743996E2,5.7355447E0,1.123689E2,9.739725E0,3.417255E2,8.531951E2,1.2000846E2,1.1010425E2,2.6685153E2,1.7880758E3,2.3938318E3,6.9603926E3,1.1069874E3,3.514983E2,3.4920974E3,1.6972038E2,6.4324675E0,8.3160706E2,2.2237883E3,3.272155E2,1.630825E2,2.962919E1,4.0640579E3,1.52321875E4,3.984007E1,1.26935196E2,1.0523569E3,4.5588947E2,8.94544E2,2.040686E1],"tree_param":{"num_deleted":"0","num_feature":"13","num_nodes":"101","size_leaf_vector":"1"}},{"base_weights":[3.40655E-4,-1.4453362E0,7.444053E-1,-5.7441634E-1,-1.5026917E0,8.4098595E-1,-1.3132782E0,-1.6466017E-1,-8.2582223E-1,-1.0985836E0,-1.5543646E0,1.3061764E0,7.489024E-1,-8.1513986E-2,1.3198539E0,-3.6811218E-1,4.2515787E-1,-3.5076588E-1,-1.0121473E0,-7.069322E-1,-1.2295995E0,-1.5888698E0,-1.3317493E0,1.1774304E0,1.4853069E0,8.490669E-1,-3.0862002E-2,7.346368E-2,-1.1951009E0,-6.9272655E-1,-1.4454086E-1,6.2460685E-1,-3.5479435E-1,-6.705306E-1,-1.5262587E-1,-8.3604807E-1,-1.4109892E0,-4.7624803E-1,-4.841329E-2,-9.91144E-1,-1.2959594E0,-1.4335672E0,-1.6118807E0,-1.3264741E0,-8.037578E-2,1.1876311E0,-4.6446508E-1,1.4891858E0,-4.674307E-1,8.633372E-1,-7.0490897E-1,-9.9129546E-1,1.3538945E0,-7.173405E-2,-1.2586407E-2,-1.26363775E-2,-4.8474155E-2,-3.0724008E-3,-4.150679E-2,4.7516856E-2,1.5580027E-2,-6.0957033E-2,-1.0252903E-2,2.9126832E-2,-3.4072828E-2,7.544569E-4,-3.278424E-2,-5.5271078E-2,-3.4072828E-2,-3.4072828E-2,-7.242435E-2,-2.79533E-2,2.3108482E-2,-4.841329E-2,-6.115371E-2,-6.6323705E-2,-5.2728068E-2,-7.6136194E-2,-6.914324E-2,-7.8073375E-2,-8.1446E-2,-6.6323705E-2,-7.408904E-2,5.5552717E-2,7.122628E-2,-8.2153894E-2,4.0339585E-2,7.556106E-2,5.5187862E-2,1.314451E-3,-4.6052095E-2,3.9608322E-2,5.4870404E-2,-2.2312967E-2,-8.008664E-2,-6.266823E-2,-1.9565966E-2,6.869865E-2,-7.39386E-2],"categories":[],"categories_nodes":[],"categories_segments":[],"categories_sizes":[],"default_left":[0,0,0,0,0,0,0,0,0,0,0,0,0,0,0,0,0,0,0,0,0,0,0,0,0,0,0,0,0,0,0,0,0,0,0,0,0,0,0,0,0,0,0,0,0,0,0,0,0,0,0,0,0,0,0,0,0,0,0,0,0,0,0,0,0,0,0,0,0,0,0,0,0,0,0,0,0,0,0,0,0,0,0,0,0,0,0,0,0,0,0,0,0,0,0,0,0,0,0],"id":5,"left_children":[1,3,5,7,9,11,13,15,17,19,21,23,25,-1,27,29,31,33,35,37,39,41,43,45,47,49,51,-1,53,55,57,59,61,63,65,67,69,71,-1,73,75,77,79,81,-1,83,85,87,89,91,93,95,97,-1,-1,-1,-1,-1,-1,-1,-1,-1,-1,-1,-1,-1,-1,-1,-1,-1,-1,-1,-1,-1,-1,-1,-1,-1,-1,-1,-1,-1,-1,-1,-1,-1,-1,-1,-1,-1,-1,-1,-1,-1,-1,-1,-1,-1,-1],"loss_changes":[4.9363832E4,7.7806445E2,6.0221797E3,9.928378E1,3.0377734E2,1.2386934E3,1.1362622E3,4.434357E1,5.2565613E1,8.441138E1,9.750195E1,1.0850391E2,1.887042E3,0E0,5.6826492E1,1.9808685E1,1.4984947E1,1.0666254E1,2.8945099E1,3.822151E1,1.8400757E1,3.7796875E1,2.2367188E1,4.7218018E1,1.580957E1,4.753877E2,3.6603037E3,0E0,1.6209841E0,1.3346699E1,9.275046E0,7.446356E0,2.3338737E0,5.114605E0,8.972885E0,1.4309708E1,3.4759521E0,2.2015858E1,0E0,7.0644226E0,1.2248413E1,4.702881E0,5.8476562E0,2.3867188E0,0E0,4.865576E1,2.8179684E1,1.524707E1,1.0805502E0,3.5256055E2,4.460398E1,2.5502454E2,6.613794E1,0E0,0E0,0E0,0E0,0E0,0E0,0E0,0E0,0E0,0E0,0E0,0E0,0E0,0E0,0E0,0E0,0E0,0E0,0E0,0E0,0E0,0E0,0E0,0E0,0E0,0E0,0E0,0E0,0E0,0E0,0E0,0E0,0E0,0E0,0E0,0E0,0E0,0E0,0E0,0E0,0E0,0E0,0E0,0E0,0E0,0E0],"parents":[2147483647,0,0,1,1,2,2,3,3,4,4,5,5,6,6,7,7,8,8,9,9,10,10,11,11,12,12,14,14,15,15,16,16,17,17,18,18,19,19,20,20,21,21,22,22,23,23,24,24,25,25,26,26,28,28,29,29,30,30,31,31,32,32,33,33,34,34,35,35,36,36,37,37,39,39,40,40,41,41,42,42,43,43,45,45,46,46,47,47,48,48,49,49,50,50,51,51,52,52],"right_children":[2,4,6,8,10,12,14,16,18,20,22,24,26,-1,28,30,32,34,36,38,40,42,44,46,48,50,52,-1,54,56,58,60,62,64,66,68,70,72,-1,74,76,78,80,82,-1,84,86,88,90,92,94,96,98,-1,-1,-1,-1,-1,-1,-1,-1,-1,-1,-1,-1,-1,-1,-1,-1,-1,-1,-1,-1,-1,-1,-1,-1,-1,-1,-1,-1,-1,-1,-1,-1,-1,-1,-1,-1,-1,-1,-1,-1,-1,-1,-1,-1,-1,-1],"split_conditions":[3E1,1.1511004E2,8E1,1.7008078E0,1.3E1,8.510749E1,9E1,1.535808E3,1.4E1,8E0,1.5559307E3,1.4151311E3,5E1,-8.1513986E-2,9.5E1,-1.2519704E-1,1.6450771E3,4.1247845E-1,6.458266E0,1.1818439E3,8.92462E2,2.1E1,9.181842E0,7.096405E0,4.5E1,3.5E1,6E1,7.346368E-2,8.319488E0,5.999847E1,1.3198625E3,4.2549343E1,3.6101086E1,2.9997347E1,1.2E1,-4.903542E-1,1.7E1,3.0010047E0,-4.841329E-2,1.1E1,1.475315E3,-4.8051864E-1,7.096405E0,1.8530491E3,-8.037578E-2,6E1,9.127078E2,1.648226E3,4.44501E0,1.5591199E3,9.181842E0,1.543E3,1.0321994E1,-7.173405E-2,-1.2586407E-2,-1.26363775E-2,-4.8474155E-2,-3.0724008E-3,-4.150679E-2,4.7516856E-2,1.5580027E-2,-6.0957033E-2,-1.0252903E-2,2.9126832E-2,-3.4072828E-2,7.544569E-4,-3.278424E-2,-5.5271078E-2,-3.4072828E-2,-3.4072828E-2,-7.242435E-2,-2.79533E-2,2.3108482E-2,-4.841329E-2,-6.115371E-2,-6.6323705E-2,-5.2728068E-2,-7.6136194E-2,-6.914324E-2,-7.8073375E-2,-8.1446E-2,-6.6323705E-2,-7.408904E-2,5.5552717E-2,7.122628E-2,-8.2153894E-2,4.0339585E-2,7.556106E-2,5.5187862E-2,1.314451E-3,-4.6052095E-2,3.9608322E-2,5.4870404E-2,-2.2312967E-2,-8.008664E-2,-6.266823E-2,-1.9565966E-2,6.869865E-2,-7.39386E-2],"split_indices":[7,6,7,0,3,6,7,8,3,3,8,8,7,0,7,2,8,2,0,8,8,3,0,0,3,3,7,0,4,6,8,6,1,6,3,2,3,0,0,3,8,2,0,6,0,7,8,8,4,8,0,8,0,0,0,0,0,0,0,0,0,0,0,0,0,0,0,0,0,0,0,0,0,0,0,0,0,0,0,0,0,0,0,0,0,0,0,0,0,0,0,0,0,0,0,0,0,0,0],"split_type":[0,0,0,0,0,0,0,0,0,0,0,0,0,0,0,0,0,0,0,0,0,0,0,0,0,0,0,0,0,0,0,0,0,0,0,0,0,0,0,0,0,0,0,0,0,0,0,0,0,0,0,0,0,0,0,0,0,0,0,0,0,0,0,0,0,0,0,0,0,0,0,0,0,0,0,0,0,0,0,0,0,0,0,0,0,0,0,0,0,0,0,0,0,0,0,0,0,0,0],"sum_hessian":[4.588894E4,1.5592543E4,3.02964E4,9.640993E2,1.4628443E4,2.8938707E4,1.3576934E3,3.672266E2,5.9687274E2,1.6609814E3,1.2967462E4,4.779636E3,2.415907E4,1.2121448E3,1.4554866E2,2.733225E2,9.390406E1,1.689637E2,4.2790903E2,4.1795776E2,1.2430237E3,1.1221933E4,1.7455297E3,2.7853225E3,1.9943138E3,2.1408902E4,2.7501682E3,1.3777869E2,7.769984E0,1.10615654E2,1.6270686E2,7.493969E1,1.8964367E1,6.3730026E1,1.0523368E2,2.9899222E2,1.289168E2,2.789547E2,1.3900305E2,2.74082E2,9.6894165E2,1.4563265E3,9.765606E3,1.4404508E3,3.0507895E2,2.7683997E3,1.6922789E1,1.9905972E3,3.7167015E0,2.1214531E4,1.943705E2,1.6240505E3,1.1261178E3,5.7810273E0,1.9889565E0,4.3450085E1,6.716557E1,1.4609059E2,1.6616283E1,3.5725628E1,3.921406E1,1.7456664E0,1.72187E1,2.4967725E0,6.1233253E1,7.964935E1,2.5584324E1,1.2108028E2,1.7791194E2,5.694504E0,1.2322229E2,2.567041E2,2.2250603E1,1.4961945E2,1.2446257E2,7.682683E2,2.0067339E2,5.061211E2,9.5020544E2,2.4903186E3,7.275287E3,1.0939644E3,3.4648642E2,2.0964167E3,6.719829E2,8.629598E0,8.293191E0,1.8801836E3,1.10413506E2,2.230751E0,1.4859505E0,1.6271465E4,4.943067E3,1.5202354E2,4.2346943E1,1.1295675E3,4.94483E2,1.1187031E3,7.4146605E0],"tree_param":{"num_deleted":"0","num_feature":"13","num_nodes":"99","size_leaf_vector":"1"}},{"base_weights":[2.9574215E-4,-1.3965731E0,7.1298647E-1,-5.4858166E-1,-1.4531336E0,8.0508E-1,-1.2729452E0,-4.2207655E-1,-1.3129923E0,-1.0550821E0,-1.5044811E0,1.1568927E0,6.89703E-1,-7.9042524E-2,1.2743862E0,-1.396629E-1,-6.687205E-1,-5.0355613E-1,-1.3991232E0,-2.897135E-1,-1.1183926E0,-1.5392164E0,-1.2812667E0,1.0249887E0,1.3749819E0,7.8955525E-1,-1.2005225E-1,7.098222E-2,-1.1567117E0,-2.6057354E-1,4.7385E-1,7.269474E-2,-7.9192793E-1,-8.3057564E-1,5.796355E-1,-1.1832095E0,-1.5238051E0,2.131584E-1,-4.7206658E-1,-9.17186E-1,-1.2148343E0,-1.4304014E0,-1.5721115E0,-1.2797816E0,-7.7901505E-2,9.5221543E-1,1.3455274E0,1.4084194E0,9.320278E-1,8.0256397E-1,-1.0022627E0,-9.653901E-1,1.286453E0,-6.956919E-2,-1.21744005E-2,1.48661E-3,-2.0090949E-2,4.4831023E-2,-1.2617235E-2,2.0362714E-2,-1.232944E-2,-1.798083E-2,-4.4636056E-2,-4.7566984E-2,-9.943013E-3,-3.0072963E-2,6.672006E-2,-6.55181E-2,-4.7566984E-2,-4.7566984E-2,-7.7959545E-2,-2.2165304E-2,2.5729898E-2,-1.0265152E-2,-3.5202652E-2,-3.5560425E-2,-5.330051E-2,-6.398908E-2,-5.4291923E-2,-6.398908E-2,-7.263857E-2,-7.6722614E-2,-7.908543E-2,-6.398908E-2,-7.1594775E-2,5.1373314E-2,-2.8884804E-2,6.91614E-2,-2.6605607E-3,7.264696E-2,5.8794726E-2,5.5300426E-2,-7.6356606E-4,4.6498645E-2,3.350861E-2,-3.8168028E-2,-7.786406E-2,-6.093466E-2,-1.955136E-2,6.62956E-2,-1.9585058E-2],"categories":[],"categories_nodes":[],"categories_segments":[],"categories_sizes":[],"default_left":[0,0,0,0,0,0,0,0,0,0,0,0,0,0,0,0,0,0,0,0,0,0,0,0,0,0,0,0,0,0,0,0,0,0,0,0,0,0,0,0,0,0,0,0,0,0,0,0,0,0,0,0,0,0,0,0,0,0,0,0,0,0,0,0,0,0,0,0,0,0,0,0,0,0,0,0,0,0,0,0,0,0,0,0,0,0,0,0,0,0,0,0,0,0,0,0,0,0,0,0,0],"id":6,"left_children":[1,3,5,7,9,11,13,15,17,19,21,23,25,-1,27,29,31,33,35,37,39,41,43,45,47,49,51,-1,53,55,57,59,61,63,65,67,69,71,73,75,77,79,81,83,-1,85,87,89,91,93,95,97,99,-1,-1,-1,-1,-1,-1,-1,-1,-1,-1,-1,-1,-1,-1,-1,-1,-1,-1,-1,-1,-1,-1,-1,-1,-1,-1,-1,-1,-1,-1,-1,-1,-1,-1,-1,-1,-1,-1,-1,-1,-1,-1,-1,-1,-1,-1,-1,-1],"loss_changes":[4.51886E4,7.3470703E2,5.498073E3,9.232605E1,2.9223242E2,1.1651777E3,1.0470793E3,5.7412277E1,8.770676E0,7.942761E1,9.673242E1,2.0261719E2,1.749291E3,0E0,5.2578583E1,2.8767498E1,4.0289886E1,5.664904E0,1.488739E0,1.1755013E1,2.8376587E1,3.716797E1,2.1601074E1,1.0190137E2,3.8234375E1,4.4971387E2,2.8258677E3,0E0,1.5221529E0,1.3265146E1,1.9852562E1,6.9023085E0,2.1704422E1,1.5961657E0,4.352648E0,1.2954788E0,2.5852966E-1,7.057291E0,1.0371302E1,2.8022278E1,1.3093384E1,7.630371E0,6.25E-1,1.5097656E0,0E0,4.1601465E2,4.3105103E1,2.3971191E1,3.139116E1,3.219004E2,1.7276047E1,2.1549011E2,5.960327E1,0E0,0E0,0E0,0E0,0E0,0E0,0E0,0E0,0E0,0E0,0E0,0E0,0E0,0E0,0E0,0E0,0E0,0E0,0E0,0E0,0E0,0E0,0E0,0E0,0E0,0E0,0E0,0E0,0E0,0E0,0E0,0E0,0E0,0E0,0E0,0E0,0E0,0E0,0E0,0E0,0E0,0E0,0E0,0E0,0E0,0E0,0E0,0E0],"parents":[2147483647,0,0,1,1,2,2,3,3,4,4,5,5,6,6,7,7,8,8,9,9,10,10,11,11,12,12,14,14,15,15,16,16,17,17,18,18,19,19,20,20,21,21,22,22,23,23,24,24,25,25,26,26,28,28,29,29,30,30,31,31,32,32,33,33,34,34,35,35,36,36,37,37,38,38,39,39,40,40,41,41,42,42,43,43,45,45,46,46,47,47,48,48,49,49,50,50,51,51,52,52],"right_children":[2,4,6,8,10,12,14,16,18,20,22,24,26,-1,28,30,32,34,36,38,40,42,44,46,48,50,52,-1,54,56,58,60,62,64,66,68,70,72,74,76,78,80,82,84,-1,86,88,90,92,94,96,98,100,-1,-1,-1,-1,-1,-1,-1,-1,-1,-1,-1,-1,-1,-1,-1,-1,-1,-1,-1,-1,-1,-1,-1,-1,-1,-1,-1,-1,-1,-1,-1,-1,-1,-1,-1,-1,-1,-1,-1,-1,-1,-1,-1,-1,-1,-1,-1,-1],"split_conditions":[3E1,1.1511004E2,8E1,6.458266E0,1.3E1,1.4547844E2,9E1,5.999847E1,1.7E1,6E0,1.5559307E3,1.4438655E3,5E1,-7.9042524E-2,9.5E1,1.6058473E3,8E0,1.4599955E3,9.181842E0,2.476635E2,9E0,3.3E1,9.181842E0,6E1,1.6423553E3,3.8E1,6E1,7.098222E-2,8.319488E0,1E1,1.9233885E0,8.5098976E1,8.1084234E-1,6.0353252E1,1.0798799E2,1E1,2.1E1,2E0,1.1440735E3,1.1818439E3,3.835655E-1,2.0999454E2,7.750877E0,1.8530491E3,-7.7901505E-2,5E1,2.7E1,1.7598147E0,9.0538376E1,1.0525975E3,9.181842E0,1.543E3,5.8965945E0,-6.956919E-2,-1.21744005E-2,1.48661E-3,-2.0090949E-2,4.4831023E-2,-1.2617235E-2,2.0362714E-2,-1.232944E-2,-1.798083E-2,-4.4636056E-2,-4.7566984E-2,-9.943013E-3,-3.0072963E-2,6.672006E-2,-6.55181E-2,-4.7566984E-2,-4.7566984E-2,-7.7959545E-2,-2.2165304E-2,2.5729898E-2,-1.0265152E-2,-3.5202652E-2,-3.5560425E-2,-5.330051E-2,-6.398908E-2,-5.4291923E-2,-6.398908E-2,-7.263857E-2,-7.6722614E-2,-7.908543E-2,-6.398908E-2,-7.1594775E-2,5.1373314E-2,-2.8884804E-2,6.91614E-2,-2.6605607E-3,7.264696E-2,5.8794726E-2,5.5300426E-2,-7.6356606E-4,4.6498645E-2,3.350861E-2,-3.8168028E-2,-7.786406E-2,-6.093466E-2,-1.955136E-2,6.62956E-2,-1.9585058E-2],"split_indices":[7,6,7,0,3,6,7,6,3,3,8,8,7,0,7,8,3,8,0,6,3,3,0,7,8,3,7,0,4,3,0,6,0,6,1,5,3,5,8,8,2,6,0,6,0,7,3,0,6,8,0,8,0,0,0,0,0,0,0,0,0,0,0,0,0,0,0,0,0,0,0,0,0,0,0,0,0,0,0,0,0,0,0,0,0,0,0,0,0,0,0,0,0,0,0,0,0,0,0,0,0],"split_type":[0,0,0,0,0,0,0,0,0,0,0,0,0,0,0,0,0,0,0,0,0,0,0,0,0,0,0,0,0,0,0,0,0,0,0,0,0,0,0,0,0,0,0,0,0,0,0,0,0,0,0,0,0,0,0,0,0,0,0,0,0,0,0,0,0,0,0,0,0,0,0,0,0,0,0,0,0,0,0,0,0,0,0,0,0,0,0,0,0,0,0,0,0,0,0,0,0,0,0,0,0],"sum_hessian":[4.538925E4,1.5333918E4,3.005533E4,9.5948004E2,1.4374438E4,2.8723912E4,1.3314183E3,8.245709E2,1.3490909E2,1.6448604E3,1.2729578E4,7.0914214E3,2.163249E4,1.1881782E3,1.4324007E2,3.8514093E2,4.3943002E2,1.3633286E1,1.212758E2,1.26092224E2,1.5187681E3,1.1010323E4,1.7192545E3,4.4223867E3,2.6690347E3,1.9257805E4,2.374687E3,1.3555661E2,7.683463E0,3.2221445E2,6.2926487E1,6.2676525E1,3.767535E2,1.0650943E1,2.9823437E0,4.8235516E1,7.304029E1,3.351089E1,9.258133E1,4.9550537E2,1.0232627E3,2.5661477E3,8.444176E3,1.4200446E3,2.9921002E2,3.6073633E3,8.1502344E2,2.4796704E3,1.8936418E2,1.9119547E4,1.3825719E2,1.4834296E3,8.912573E2,5.6961265E0,1.9873368E0,1.0571824E2,2.164962E2,3.962388E1,2.3302607E1,3.0471548E1,3.2204975E1,5.2513893E1,3.242396E2,6.93351E0,3.717433E0,1.2419682E0,1.7403755E0,3.660842E1,1.1627093E1,5.2203274E0,6.781996E1,1.0397327E1,2.3113564E1,6.2932568E1,2.9648764E1,3.179877E2,1.7751767E2,5.177558E2,5.0550693E2,3.1129837E2,2.2548494E3,1.7475709E3,6.696605E3,1.0792366E3,3.4080792E2,3.438561E3,1.6880219E2,7.936433E2,2.1380133E1,2.0767942E3,4.0287637E2,1.5984041E2,2.9523775E1,9.740055E3,9.379491E3,9.83142E1,3.994299E1,1.0286549E3,4.547747E2,8.7098737E2,2.0269962E1],"tree_param":{"num_deleted":"0","num_feature":"13","num_nodes":"101","size_leaf_vector":"1"}},{"base_weights":[2.1002816E-4,-1.3521372E0,6.83522E-1,-6.5081894E-1,-1.4186331E0,7.7137357E-1,-1.2367564E0,-2.5779498E-1,-8.7021005E-1,-1.1757176E0,-1.4925464E0,1.2150198E0,6.846945E-1,-7.6830655E-2,1.2327904E0,-3.1784724E-2,-5.640025E-1,-7.242332E-1,-1.3751799E0,-7.939661E-1,-1.2581396E0,-1.522838E0,-1.334132E0,1.0902461E0,1.3907613E0,7.755672E-1,-3.0148823E-2,6.871551E-2,-1.1210455E0,-1.4370306E-1,4.131037E-1,-1.3288777E-1,-2.8200125E-2,-2.8200125E-2,-9.4588614E-1,-5.8171093E-1,-1.4078771E0,-5.6995755E-1,-5.130264E-2,-1.301399E0,-1.0740832E0,-1.4870069E0,-7.685053E-2,-6.67066E-2,-7.599582E-2,1.1001737E0,-4.8346367E-1,1.3946714E0,-5.0824594E-1,7.894208E-1,-5.8314574E-1,-9.1453236E-1,1.2602112E0,-6.7749165E-2,-1.1330658E-2,-2.1233556E-3,-2.8200125E-2,-2.8200125E-2,2.3824256E-2,-1.7422257E-2,9.330248E-3,-5.2901067E-2,-2.8200125E-2,-2.8200125E-2,-4.8720993E-2,-6.3033625E-2,-7.6157704E-2,-3.287459E-2,8.807426E-3,-6.0506385E-2,-6.67066E-2,-5.130264E-2,-6.647311E-2,-6.88409E-2,-7.506146E-2,5.1345017E-2,6.649871E-2,-7.972956E-2,3.6882456E-2,7.083442E-2,5.077526E-2,-6.9820904E-4,-4.722024E-2,3.5948765E-2,5.1096078E-2,-7.389823E-2,-1.7111119E-2,-5.810948E-2,-1.7985938E-2,6.397855E-2,-7.082422E-2],"categories":[],"categories_nodes":[],"categories_segments":[],"categories_sizes":[],"default_left":[0,0,0,0,0,0,0,0,0,0,0,0,0,0,0,0,0,0,0,0,0,0,0,0,0,0,0,0,0,0,0,0,0,0,0,0,0,0,0,0,0,0,0,0,0,0,0,0,0,0,0,0,0,0,0,0,0,0,0,0,0,0,0,0,0,0,0,0,0,0,0,0,0,0,0,0,0,0,0,0,0,0,0,0,0,0,0,0,0,0,0],"id":7,"left_children":[1,3,5,7,9,11,13,15,17,19,21,23,25,-1,27,29,31,33,35,37,39,41,43,45,47,49,51,-1,53,55,57,59,-1,-1,61,63,65,67,-1,69,71,73,-1,-1,-1,75,77,79,81,83,85,87,89,-1,-1,-1,-1,-1,-1,-1,-1,-1,-1,-1,-1,-1,-1,-1,-1,-1,-1,-1,-1,-1,-1,-1,-1,-1,-1,-1,-1,-1,-1,-1,-1,-1,-1,-1,-1,-1,-1],"loss_changes":[4.1438543E4,7.0105273E2,5.026626E3,1.1234082E2,2.4508594E2,1.0946699E3,9.672721E2,3.3502823E1,6.0730347E1,1.00066895E2,5.8859375E1,1.0055664E2,1.5482773E3,0E0,4.8746017E1,1.3735927E1,1.18791275E1,4.365625E1,4.0240784E0,4.607617E1,1.962207E1,2.3515625E0,7.8291016E0,4.3134277E1,1.5033936E1,3.984922E2,3.0698691E3,0E0,1.4898129E0,1.2932922E1,5.1603003E0,6.324423E0,0E0,0E0,1.8168182E1,9.194741E-1,1.110199E0,2.4603195E1,0E0,1.0597412E1,2.9086975E1,2.0361328E0,0E0,0E0,0E0,4.4266357E1,2.5312656E1,1.46345215E1,9.993956E-1,3.4211816E2,4.5630157E1,2.1889465E2,5.8502563E1,0E0,0E0,0E0,0E0,0E0,0E0,0E0,0E0,0E0,0E0,0E0,0E0,0E0,0E0,0E0,0E0,0E0,0E0,0E0,0E0,0E0,0E0,0E0,0E0,0E0,0E0,0E0,0E0,0E0,0E0,0E0,0E0,0E0,0E0,0E0,0E0,0E0,0E0],"parents":[2147483647,0,0,1,1,2,2,3,3,4,4,5,5,6,6,7,7,8,8,9,9,10,10,11,11,12,12,14,14,15,15,16,16,17,17,18,18,19,19,20,20,21,21,22,22,23,23,24,24,25,25,26,26,28,28,29,29,30,30,31,31,34,34,35,35,36,36,37,37,39,39,40,40,41,41,45,45,46,46,47,47,48,48,49,49,50,50,51,51,52,52],"right_children":[2,4,6,8,10,12,14,16,18,20,22,24,26,-1,28,30,32,34,36,38,40,42,44,46,48,50,52,-1,54,56,58,60,-1,-1,62,64,66,68,-1,70,72,74,-1,-1,-1,76,78,80,82,84,86,88,90,-1,-1,-1,-1,-1,-1,-1,-1,-1,-1,-1,-1,-1,-1,-1,-1,-1,-1,-1,-1,-1,-1,-1,-1,-1,-1,-1,-1,-1,-1,-1,-1,-1,-1,-1,-1,-1,-1],"split_conditions":[3E1,1.5764076E2,8E1,1.3E1,2.1E1,8.510749E1,9E1,8.5098976E1,6.458266E0,9E0,1.543E3,1.4151311E3,5E1,-7.6830655E-2,9.5E1,1.4599955E3,8E0,6.035961E1,1.7E1,1.1818439E3,1.5512976E3,8.108887E0,9.181842E0,7.096405E0,4.5E1,3.4E1,6E1,6.871551E-2,1.2552644E3,1.294965E3,3.6220973E0,4E0,-2.8200125E-2,-2.8200125E-2,1.535808E3,3.0176767E1,1.0321994E1,2.6492996E0,-5.130264E-2,9.653543E2,1.610392E3,3.202108E2,-7.685053E-2,-6.67066E-2,-7.599582E-2,6E1,9.127078E2,1.648226E3,1.6146747E3,1.5591199E3,2.8910913E0,1.543E3,1.0321994E1,-6.7749165E-2,-1.1330658E-2,-2.1233556E-3,-2.8200125E-2,-2.8200125E-2,2.3824256E-2,-1.7422257E-2,9.330248E-3,-5.2901067E-2,-2.8200125E-2,-2.8200125E-2,-4.8720993E-2,-6.3033625E-2,-7.6157704E-2,-3.287459E-2,8.807426E-3,-6.0506385E-2,-6.67066E-2,-5.130264E-2,-6.647311E-2,-6.88409E-2,-7.506146E-2,5.1345017E-2,6.649871E-2,-7.972956E-2,3.6882456E-2,7.083442E-2,5.077526E-2,-6.9820904E-4,-4.722024E-2,3.5948765E-2,5.1096078E-2,-7.389823E-2,-1.7111119E-2,-5.810948E-2,-1.7985938E-2,6.397855E-2,-7.082422E-2],"split_indices":[7,6,7,3,3,6,7,6,0,3,8,8,7,0,7,8,3,6,3,8,8,0,0,0,3,3,7,0,8,8,4,5,0,0,8,6,0,0,0,8,8,6,0,0,0,7,8,8,8,8,4,8,0,0,0,0,0,0,0,0,0,0,0,0,0,0,0,0,0,0,0,0,0,0,0,0,0,0,0,0,0,0,0,0,0,0,0,0,0,0,0],"split_type":[0,0,0,0,0,0,0,0,0,0,0,0,0,0,0,0,0,0,0,0,0,0,0,0,0,0,0,0,0,0,0,0,0,0,0,0,0,0,0,0,0,0,0,0,0,0,0,0,0,0,0,0,0,0,0,0,0,0,0,0,0,0,0,0,0,0,0,0,0,0,0,0,0,0,0,0,0,0,0,0,0,0,0,0,0,0,0,0,0,0,0],"sum_hessian":[4.484127E4,1.5051591E4,2.9789682E4,1.3044664E3,1.3747124E4,2.8487016E4,1.3026655E3,4.6809024E2,8.3637616E2,3.211022E3,1.0536103E4,4.653934E3,2.3833082E4,1.1619565E3,1.40709E2,2.7367847E2,1.9441179E2,6.507045E2,1.8567165E2,5.720609E2,2.6389612E3,9.127621E3,1.4084814E3,2.7258352E3,1.9280989E3,2.1144992E4,2.688089E3,1.3312148E2,7.5875344E0,2.1920992E2,5.446854E1,6.4734474E1,1.296773E2,2.3543893E2,4.152656E2,8.092012E0,1.7757964E2,3.7394162E2,1.9811928E2,2.131838E3,5.0712317E2,2.617083E3,6.5105376E3,1.069511E3,3.3897058E2,2.7090461E3,1.6789059E1,1.924402E3,3.6969037E0,2.0931986E4,2.1300572E2,1.5951208E3,1.0929684E3,5.6063027E0,1.9812317E0,1.907339E2,2.8476015E1,1.4915754E0,5.2976963E1,3.2549362E1,3.2185112E1,3.2348666E2,9.177893E1,1.7279284E0,6.3640842E0,8.3231735E1,9.434789E1,3.3478314E2,3.9158478E1,9.525313E2,1.1793066E3,1.67987E2,3.3913617E2,3.1035913E2,2.3067239E3,2.058233E3,6.508133E2,8.630266E0,8.158792E0,1.8162042E3,1.0819784E2,2.2167566E0,1.4801471E0,1.6067718E4,4.864269E3,4.409541E1,1.6891031E2,1.1020803E3,4.9304044E2,1.0856382E3,7.3301764E0],"tree_param":{"num_deleted":"0","num_feature":"13","num_nodes":"91","size_leaf_vector":"1"}},{"base_weights":[1.814865E-4,-1.3111354E0,6.557176E-1,-6.2255275E-1,-1.377358E0,7.3954016E-1,-1.2041234E0,-5.063694E-1,-1.299425E0,-1.134803E0,-1.4517595E0,1.0516922E0,6.2152576E-1,-7.484167E-2,1.1945139E0,-1.182003E-1,-7.121861E-1,-4.4435364E-1,-1.366509E0,-7.6296103E-1,-1.2159202E0,-1.4826558E0,-1.2932813E0,9.2152816E-1,1.2749399E0,7.1215695E-1,-1.2531894E-1,1.3326594E0,-1.0876696E0,1.0013094E0,-1.7783314E-1,2.8581167E-2,-8.2369965E-1,-8.04845E-1,6.913857E-1,-1.2202919E0,-1.4816526E0,-5.441328E-1,-4.947203E-2,-1.2598473E0,-1.029406E0,-1.4329789E0,-7.4669205E-2,-6.4664066E-2,-7.399155E-2,1.085646E0,7.812498E-1,1.3094711E0,8.008594E-1,7.245164E-1,-9.632167E-1,-8.994328E-1,1.2085222E0,6.691157E-2,2.3068799E-2,-6.5911196E-2,-1.09612E-2,1.1437429E-3,6.534972E-2,5.1168078E-3,-1.7896079E-2,1.930244E-2,-7.216841E-3,-4.762926E-2,-2.05426E-2,-6.5613734E-3,-4.5271564E-2,-2.8601332E-2,7.042525E-2,-6.616371E-2,-4.5271564E-2,-4.5271564E-2,-7.5066134E-2,-3.140677E-2,8.3698835E-3,-5.845062E-2,-6.4664066E-2,-4.947203E-2,-6.428444E-2,-6.686878E-2,-7.291048E-2,-4.6082113E-2,5.477109E-2,4.222339E-2,2.0467877E-2,6.812626E-2,5.639195E-2,5.1073115E-2,-4.0843557E-3,4.943357E-2,3.2627236E-2,-3.7163753E-2,-7.367047E-2,-5.6996305E-2,-1.8491296E-2,6.2353827E-2,-2.1797627E-2],"categories":[],"categories_nodes":[],"categories_segments":[],"categories_sizes":[],"default_left":[0,0,0,0,0,0,0,0,0,0,0,0,0,0,0,0,0,0,0,0,0,0,0,0,0,0,0,0,0,0,0,0,0,0,0,0,0,0,0,0,0,0,0,0,0,0,0,0,0,0,0,0,0,0,0,0,0,0,0,0,0,0,0,0,0,0,0,0,0,0,0,0,0,0,0,0,0,0,0,0,0,0,0,0,0,0,0,0,0,0,0,0,0,0,0,0,0],"id":8,"left_children":[1,3,5,7,9,11,13,15,17,19,21,23,25,-1,27,29,31,33,35,37,39,41,43,45,47,49,51,53,55,57,59,61,63,65,67,69,71,73,-1,75,77,79,-1,-1,-1,81,83,85,87,89,91,93,95,-1,-1,-1,-1,-1,-1,-1,-1,-1,-1,-1,-1,-1,-1,-1,-1,-1,-1,-1,-1,-1,-1,-1,-1,-1,-1,-1,-1,-1,-1,-1,-1,-1,-1,-1,-1,-1,-1,-1,-1,-1,-1,-1,-1],"loss_changes":[3.8045523E4,6.71791E2,4.601035E3,1.0126172E2,2.411875E2,1.0395088E3,8.955193E2,8.841824E1,1.0247162E1,9.448364E1,5.9433594E1,2.2388281E2,1.3871284E3,0E0,4.527237E1,2.5883541E1,5.9808014E1,6.799197E0,1.1379089E0,4.3831512E1,1.9964111E1,2.609375E0,7.463135E0,1.1186914E2,4.560547E1,3.791006E2,2.2917512E3,2.104187E-2,1.4097776E0,5.83943E0,1.8524548E1,5.9687576E0,3.3081635E1,1.1363277E0,4.6214542E0,2.8192978E0,2.6890564E-1,2.2411278E1,0E0,1.0472168E1,2.7564026E1,1.9274902E0,0E0,0E0,0E0,4.5233887E1,6.179895E1,2.4046387E1,3.82554E1,3.4424707E2,1.3969887E1,1.7844495E2,5.2223633E1,0E0,0E0,0E0,0E0,0E0,0E0,0E0,0E0,0E0,0E0,0E0,0E0,0E0,0E0,0E0,0E0,0E0,0E0,0E0,0E0,0E0,0E0,0E0,0E0,0E0,0E0,0E0,0E0,0E0,0E0,0E0,0E0,0E0,0E0,0E0,0E0,0E0,0E0,0E0,0E0,0E0,0E0,0E0,0E0],"parents":[2147483647,0,0,1,1,2,2,3,3,4,4,5,5,6,6,7,7,8,8,9,9,10,10,11,11,12,12,14,14,15,15,16,16,17,17,18,18,19,19,20,20,21,21,22,22,23,23,24,24,25,25,26,26,27,27,28,28,29,29,30,30,31,31,32,32,33,33,34,34,35,35,36,36,37,37,39,39,40,40,41,41,45,45,46,46,47,47,48,48,49,49,50,50,51,51,52,52],"right_children":[2,4,6,8,10,12,14,16,18,20,22,24,26,-1,28,30,32,34,36,38,40,42,44,46,48,50,52,54,56,58,60,62,64,66,68,70,72,74,-1,76,78,80,-1,-1,-1,82,84,86,88,90,92,94,96,-1,-1,-1,-1,-1,-1,-1,-1,-1,-1,-1,-1,-1,-1,-1,-1,-1,-1,-1,-1,-1,-1,-1,-1,-1,-1,-1,-1,-1,-1,-1,-1,-1,-1,-1,-1,-1,-1,-1,-1,-1,-1,-1,-1],"split_conditions":[3E1,1.5764076E2,8E1,6.458266E0,2.1E1,1.7021773E2,9E1,5.999847E1,1.7E1,9E0,1.543E3,1.4438655E3,5E1,-7.484167E-2,9.5E1,2.9995644E1,8E0,1.4599955E3,1.0321994E1,1.1818439E3,1.5512976E3,4.3E1,9.181842E0,7.2551735E1,1.6423553E3,3.8E1,6E1,3.5729572E2,1.2552644E3,2.9994732E1,1.4229436E0,8.5098976E1,1.4290045E3,3.0176767E1,1.0798799E2,4.6788044E0,2E1,2.6492996E0,-4.947203E-2,9.653543E2,1.610392E3,3.6277792E2,-7.4669205E-2,-6.4664066E-2,-7.399155E-2,2.9992862E0,5E1,1.3676994E0,9.0538376E1,8.8701746E2,9.181842E0,1.543E3,5.8965945E0,6.691157E-2,2.3068799E-2,-6.5911196E-2,-1.09612E-2,1.1437429E-3,6.534972E-2,5.1168078E-3,-1.7896079E-2,1.930244E-2,-7.216841E-3,-4.762926E-2,-2.05426E-2,-6.5613734E-3,-4.5271564E-2,-2.8601332E-2,7.042525E-2,-6.616371E-2,-4.5271564E-2,-4.5271564E-2,-7.5066134E-2,-3.140677E-2,8.3698835E-3,-5.845062E-2,-6.4664066E-2,-4.947203E-2,-6.428444E-2,-6.686878E-2,-7.291048E-2,-4.6082113E-2,5.477109E-2,4.222339E-2,2.0467877E-2,6.812626E-2,5.639195E-2,5.1073115E-2,-4.0843557E-3,4.943357E-2,3.2627236E-2,-3.7163753E-2,-7.367047E-2,-5.6996305E-2,-1.8491296E-2,6.2353827E-2,-2.1797627E-2],"split_indices":[7,6,7,0,3,6,7,6,3,3,8,8,7,0,7,6,3,8,0,8,8,3,0,6,8,3,7,1,8,6,0,6,8,6,1,4,3,0,0,8,8,6,0,0,0,4,7,0,6,8,0,8,0,0,0,0,0,0,0,0,0,0,0,0,0,0,0,0,0,0,0,0,0,0,0,0,0,0,0,0,0,0,0,0,0,0,0,0,0,0,0,0,0,0,0,0,0],"split_type":[0,0,0,0,0,0,0,0,0,0,0,0,0,0,0,0,0,0,0,0,0,0,0,0,0,0,0,0,0,0,0,0,0,0,0,0,0,0,0,0,0,0,0,0,0,0,0,0,0,0,0,0,0,0,0,0,0,0,0,0,0,0,0,0,0,0,0,0,0,0,0,0,0,0,0,0,0,0,0,0,0,0,0,0,0,0,0,0,0,0,0,0,0,0,0,0,0],"sum_hessian":[4.425676E4,1.4750086E4,2.9506674E4,1.2950072E3,1.3455078E4,2.8234744E4,1.2719303E3,1.1067794E3,1.8822775E2,3.162224E3,1.02928545E4,7.7439175E3,2.0490826E4,1.1339305E3,1.3799968E2,3.8404575E2,7.2273364E2,1.4247605E1,1.7398015E2,5.681631E2,2.594061E3,8.911833E3,1.3810216E3,4.8950166E3,2.8489014E3,1.8273361E4,2.2174646E3,1.3051537E2,7.484317E0,1.8623756E1,3.65422E2,9.466072E1,6.2807294E2,1.1036039E1,3.2115664E0,8.175729E1,9.2222855E1,3.721972E2,1.9596591E2,2.0949185E3,4.9914255E2,1.6067037E3,7.305129E3,1.0500471E3,3.309744E2,2.252719E3,2.6422974E3,2.6538381E3,1.9506305E2,1.8140107E4,1.332545E2,1.4033412E3,8.141235E2,1.2915347E2,1.3618995E0,5.5049534E0,1.9793634E0,4.689256E0,1.3934501E1,1.431503E2,2.222717E2,3.0459743E1,6.420097E1,4.7764975E2,1.5042319E2,2.466697E0,8.569342E0,1.2361171E0,1.9754493E0,6.683457E1,1.4922719E1,2.9868627E0,8.9235985E1,3.330007E2,3.9196503E1,9.371582E2,1.1577601E3,1.6581241E2,3.3333014E2,3.4676376E2,1.25994E3,1.0465753E1,2.2422532E3,2.2573074E3,3.8499E2,2.0488691E3,6.0496906E2,1.5592928E2,3.9133774E1,3.8814453E3,1.4258662E4,9.4830414E1,3.842409E1,9.643016E2,4.3903958E2,7.9570996E2,1.8413527E1],"tree_param":{"num_deleted":"0","num_feature":"13","num_nodes":"97","size_leaf_vector":"1"}},{"base_weights":[1.4198017E-4,-1.2733555E0,6.29344E-1,-5.963794E-1,-1.3394572E0,7.0932287E-1,-1.1745377E0,-2.3298016E-1,-8.024019E-1,-1.0964547E0,-1.414656E0,1.0885521E0,6.175375E-1,-7.3045455E-2,1.1592128E0,-2.2713354E-2,-5.17691E-1,-6.6368973E-1,-1.2950339E0,-4.8248655E-1,-1.1441603E0,-1.446273E0,-1.2555554E0,9.54718E-1,1.2917702E0,7.0238787E-1,-6.971908E-2,1.2942928E0,-1.056415E0,-1.2727249E-1,3.928629E-1,-1.2202343E-1,-2.5884552E-2,-2.5884552E-2,-8.765108E-1,-7.664178E-1,-1.3474622E0,-1.7774513E-1,-8.133234E-1,-9.482654E-1,-1.1901515E0,-1.4086775E0,-7.305979E-2,-6.277777E-2,-7.2176084E-2,8.781866E-1,1.2379926E0,1.3142622E0,8.761782E-1,7.156818E-1,-5.8890665E-1,-8.5185534E-1,1.1697127E0,6.498607E-2,2.2498101E-2,-6.436613E-2,-1.0180253E-2,-1.4389158E-3,-2.5884552E-2,-1.4723539E-3,3.0082673E-2,-1.5992863E-2,9.198145E-3,-2.5884552E-2,-4.817498E-2,-2.5884552E-2,-5.2846998E-2,-5.960671E-2,-7.319304E-2,-4.066617E-2,-3.4409575E-3,-4.066617E-2,1.2258131E-2,-4.066617E-2,-5.279642E-2,-6.190696E-2,-5.346042E-2,-6.48652E-2,-7.1157105E-2,4.6917927E-2,-2.2441393E-2,6.406778E-2,-1.0209809E-2,6.669397E-2,3.9878752E-2,5.0948508E-2,1.0270638E-2,3.247372E-2,4.6775404E-2,-2.6285117E-3,-4.6301994E-2,-5.4121573E-2,-1.7380945E-2,5.98158E-2,-4.1322246E-2],"categories":[],"categories_nodes":[],"categories_segments":[],"categories_sizes":[],"default_left":[0,0,0,0,0,0,0,0,0,0,0,0,0,0,0,0,0,0,0,0,0,0,0,0,0,0,0,0,0,0,0,0,0,0,0,0,0,0,0,0,0,0,0,0,0,0,0,0,0,0,0,0,0,0,0,0,0,0,0,0,0,0,0,0,0,0,0,0,0,0,0,0,0,0,0,0,0,0,0,0,0,0,0,0,0,0,0,0,0,0,0,0,0,0,0],"id":9,"left_children":[1,3,5,7,9,11,13,15,17,19,21,23,25,-1,27,29,31,33,35,37,39,41,43,45,47,49,51,53,55,57,59,61,-1,-1,63,65,67,69,71,73,75,77,-1,-1,-1,79,81,83,85,87,89,91,93,-1,-1,-1,-1,-1,-1,-1,-1,-1,-1,-1,-1,-1,-1,-1,-1,-1,-1,-1,-1,-1,-1,-1,-1,-1,-1,-1,-1,-1,-1,-1,-1,-1,-1,-1,-1,-1,-1,-1,-1,-1,-1],"loss_changes":[3.4974465E4,6.451074E2,4.2156074E3,9.6078094E1,2.3872852E2,9.7304785E2,8.308446E2,2.9065392E1,5.5185974E1,9.059448E1,6.026758E1,1.4699219E2,1.3135918E3,0E0,4.2117325E1,1.1960724E1,9.98362E0,3.8547363E1,3.9322205E0,2.3511032E1,2.4879883E1,2.8144531E0,7.126831E0,7.02334E1,1.9050293E1,3.446084E2,2.4015562E3,5.4473877E-3,1.3870354E0,1.1983662E1,4.897915E0,5.7520337E0,0E0,0E0,1.5851074E1,2.3744373E0,1.1777649E0,9.765093E0,1.0441643E1,1.6398987E1,1.7970947E1,2.1743164E0,0E0,0E0,0E0,2.0750732E2,4.386914E1,1.9697021E1,1.0705727E1,2.8823633E2,3.699376E1,1.762096E2,5.188916E1,0E0,0E0,0E0,0E0,0E0,0E0,0E0,0E0,0E0,0E0,0E0,0E0,0E0,0E0,0E0,0E0,0E0,0E0,0E0,0E0,0E0,0E0,0E0,0E0,0E0,0E0,0E0,0E0,0E0,0E0,0E0,0E0,0E0,0E0,0E0,0E0,0E0,0E0,0E0,0E0,0E0,0E0],"parents":[2147483647,0,0,1,1,2,2,3,3,4,4,5,5,6,6,7,7,8,8,9,9,10,10,11,11,12,12,14,14,15,15,16,16,17,17,18,18,19,19,20,20,21,21,22,22,23,23,24,24,25,25,26,26,27,27,28,28,29,29,30,30,31,31,34,34,35,35,36,36,37,37,38,38,39,39,40,40,41,41,45,45,46,46,47,47,48,48,49,49,50,50,51,51,52,52],"right_children":[2,4,6,8,10,12,14,16,18,20,22,24,26,-1,28,30,32,34,36,38,40,42,44,46,48,50,52,54,56,58,60,62,-1,-1,64,66,68,70,72,74,76,78,-1,-1,-1,80,82,84,86,88,90,92,94,-1,-1,-1,-1,-1,-1,-1,-1,-1,-1,-1,-1,-1,-1,-1,-1,-1,-1,-1,-1,-1,-1,-1,-1,-1,-1,-1,-1,-1,-1,-1,-1,-1,-1,-1,-1,-1,-1,-1,-1,-1,-1],"split_conditions":[3E1,1.5764076E2,8E1,1.3E1,2.1E1,1.1509307E2,9E1,8.5098976E1,6.458266E0,7E0,1.543E3,1.4151311E3,5E1,-7.3045455E-2,9.5E1,1.4599955E3,8E0,6.035961E1,2E1,1.0195535E3,1E1,8.108887E0,9.181842E0,6E1,1.648226E3,3.4E1,6E1,3.5729572E2,8.319488E0,1.294965E3,1.20637375E2,4E0,-2.5884552E-2,-2.5884552E-2,9.837165E-1,9.425919E2,1.0321994E1,1.820228E1,5.49E2,8.812337E2,1.543E3,3.202108E2,-7.305979E-2,-6.277777E-2,-7.2176084E-2,5E1,2.7E1,2.7E1,6.035961E1,1.5559307E3,4E1,1.543E3,7.750877E0,6.498607E-2,2.2498101E-2,-6.436613E-2,-1.0180253E-2,-1.4389158E-3,-2.5884552E-2,-1.4723539E-3,3.0082673E-2,-1.5992863E-2,9.198145E-3,-2.5884552E-2,-4.817498E-2,-2.5884552E-2,-5.2846998E-2,-5.960671E-2,-7.319304E-2,-4.066617E-2,-3.4409575E-3,-4.066617E-2,1.2258131E-2,-4.066617E-2,-5.279642E-2,-6.190696E-2,-5.346042E-2,-6.48652E-2,-7.1157105E-2,4.6917927E-2,-2.2441393E-2,6.406778E-2,-1.0209809E-2,6.669397E-2,3.9878752E-2,5.0948508E-2,1.0270638E-2,3.247372E-2,4.6775404E-2,-2.6285117E-3,-4.6301994E-2,-5.4121573E-2,-1.7380945E-2,5.98158E-2,-4.1322246E-2],"split_indices":[7,6,7,3,3,6,7,6,0,3,8,8,7,0,7,8,3,6,3,8,3,0,0,7,8,3,7,1,4,8,1,5,0,0,0,8,0,11,5,8,8,6,0,0,0,7,3,3,6,8,3,8,0,0,0,0,0,0,0,0,0,0,0,0,0,0,0,0,0,0,0,0,0,0,0,0,0,0,0,0,0,0,0,0,0,0,0,0,0,0,0,0,0,0,0],"split_type":[0,0,0,0,0,0,0,0,0,0,0,0,0,0,0,0,0,0,0,0,0,0,0,0,0,0,0,0,0,0,0,0,0,0,0,0,0,0,0,0,0,0,0,0,0,0,0,0,0,0,0,0,0,0,0,0,0,0,0,0,0,0,0,0,0,0,0,0,0,0,0,0,0,0,0,0,0,0,0,0,0,0,0,0,0,0,0,0,0,0,0,0,0,0,0],"sum_hessian":[4.364586E4,1.4432872E4,2.9212988E4,1.2847905E3,1.3148081E4,2.7973338E4,1.2396508E3,4.6562106E2,8.191695E2,3.1109038E3,1.0037178E4,5.4489746E3,2.2524363E4,1.1044938E3,1.3515698E2,2.7311035E2,1.925107E2,6.410219E2,1.7814757E2,2.2509238E2,2.8858113E3,8.685091E3,1.3520874E3,3.2887727E3,2.1602017E3,2.004904E4,2.475324E3,1.27782326E2,7.374656E0,2.187632E2,5.434716E1,6.465942E1,1.2785127E2,2.3425616E2,4.0676575E2,1.7483692E1,1.6066388E2,1.20098755E2,1.0499363E2,5.5280585E2,2.3330056E3,2.4949292E3,6.190161E3,1.0295148E3,3.2257257E2,2.5924724E3,6.9630023E2,2.0472421E3,1.12959526E2,1.9845178E4,2.0386165E2,1.5178232E3,9.5750085E2,1.2643009E2,1.352237E0,5.402392E0,1.9722643E0,1.9039168E2,2.8371527E1,1.8264156E1,3.6083004E1,3.247194E1,3.218748E1,6.2501842E1,3.442639E2,6.2712383E0,1.1212454E1,7.363866E1,8.7025215E1,1.4032103E1,1.0606665E2,9.606814E1,8.925497E0,9.26064E1,4.6019943E2,1.8651108E3,4.678947E2,2.9720837E2,2.197721E3,2.480299E3,1.1217346E2,6.760837E2,2.0216602E1,1.9708331E3,7.6409E1,9.2705376E1,2.0254154E1,1.5254709E4,4.5904683E3,7.9130684E1,1.24730965E2,1.04076E3,4.7706323E2,9.453032E2,1.2197598E1],"tree_param":{"num_deleted":"0","num_feature":"13","num_nodes":"95","size_leaf_vector":"1"}},{"base_weights":[2.0080474E-4,-1.2380939E0,6.044638E-1,-4.8084253E-1,-1.2965486E0,6.8080807E-1,-1.1476246E0,-3.695172E-1,-1.1787511E0,-9.0684336E-1,-1.3486966E0,9.796257E-1,5.692309E-1,-7.1417086E-2,1.1263919E0,-9.896274E-2,-5.800934E-1,-4.1400152E-1,-1.2573899E0,-1.9810936E-1,-9.6760935E-1,-1.3863424E0,-1.12777E0,8.5346013E-1,1.1994648E0,6.513224E-1,-1.16802804E-1,6.2933795E-2,-1.0269537E0,-2.0992966E-1,4.6454394E-1,3.055466E-2,-6.777671E-1,-7.2858083E-1,6.0398895E-1,-1.0569496E0,-1.3724147E0,2.9882872E-1,-3.7016544E-1,-1.0214516E0,-6.2196445E-1,-1.2593575E0,-1.4144777E0,-5.6388497E-2,-7.018327E-2,7.878842E-1,1.1830428E0,1.2341143E0,7.315164E-1,7.926091E-1,5.035092E-1,-8.3213896E-1,1.1335768E0,-6.2780626E-2,-9.849322E-3,-2.1410784E-2,-1.7397043E-3,3.8934894E-2,-1.868716E-2,1.8309906E-2,-1.2289779E-2,-1.6180312E-2,-3.9711867E-2,2.1824946E-3,-4.178479E-2,6.268965E-2,-2.3812847E-2,-6.734062E-2,-4.326285E-2,-4.178479E-2,-7.024485E-2,-1.5773503E-2,2.7992744E-2,2.1408288E-2,-2.430762E-2,-4.338637E-2,-5.518782E-2,-2.9142966E-2,-4.433645E-2,-6.684589E-2,-6.0803074E-2,-6.859599E-2,-7.144673E-2,4.315163E-2,-3.1016646E-2,6.1157256E-2,-8.244617E-3,6.630908E-2,5.61887E-2,4.7377665E-2,-5.6148036E-3,1.0400035E-2,4.180834E-2,1.0437495E-2,4.2008817E-2,-5.3217422E-2,-1.6763072E-2,5.85562E-2,-2.1044064E-2],"categories":[],"categories_nodes":[],"categories_segments":[],"categories_sizes":[],"default_left":[0,0,0,0,0,0,0,0,0,0,0,0,0,0,0,0,0,0,0,0,0,0,0,0,0,0,0,0,0,0,0,0,0,0,0,0,0,0,0,0,0,0,0,0,0,0,0,0,0,0,0,0,0,0,0,0,0,0,0,0,0,0,0,0,0,0,0,0,0,0,0,0,0,0,0,0,0,0,0,0,0,0,0,0,0,0,0,0,0,0,0,0,0,0,0,0,0,0,0],"id":10,"left_children":[1,3,5,7,9,11,13,15,17,19,21,23,25,-1,27,29,31,33,35,37,39,41,43,45,47,49,51,-1,53,55,57,59,61,63,65,67,69,71,73,75,77,79,81,-1,-1,83,85,87,89,91,93,95,97,-1,-1,-1,-1,-1,-1,-1,-1,-1,-1,-1,-1,-1,-1,-1,-1,-1,-1,-1,-1,-1,-1,-1,-1,-1,-1,-1,-1,-1,-1,-1,-1,-1,-1,-1,-1,-1,-1,-1,-1,-1,-1,-1,-1,-1,-1],"loss_changes":[3.2180564E4,6.2369727E2,3.8669326E3,7.8216415E1,2.6485547E2,9.228955E2,7.72229E2,4.9765556E1,7.827133E0,6.648816E1,1.0120703E2,2.077959E2,1.1359585E3,0E0,3.923712E1,2.4106312E1,2.9339417E1,5.0621967E0,1.4399719E0,1.0671972E1,2.5898682E1,3.380664E1,1.8951782E1,1.02528076E2,4.3569824E1,3.7580273E2,1.929705E3,0E0,1.3202858E0,1.2274867E1,1.700872E1,6.4660163E0,1.8272095E1,2.0346699E0,3.3726602E0,1.6164474E0,3.1307983E-1,5.3593397E0,8.745618E0,1.4630493E1,7.278824E0,4.706787E0,3.0517578E0,0E0,0E0,4.2337207E2,4.3035522E1,2.44375E1,3.5024445E1,2.3431348E2,8.7372705E2,1.5797186E2,4.631842E1,0E0,0E0,0E0,0E0,0E0,0E0,0E0,0E0,0E0,0E0,0E0,0E0,0E0,0E0,0E0,0E0,0E0,0E0,0E0,0E0,0E0,0E0,0E0,0E0,0E0,0E0,0E0,0E0,0E0,0E0,0E0,0E0,0E0,0E0,0E0,0E0,0E0,0E0,0E0,0E0,0E0,0E0,0E0,0E0,0E0,0E0],"parents":[2147483647,0,0,1,1,2,2,3,3,4,4,5,5,6,6,7,7,8,8,9,9,10,10,11,11,12,12,14,14,15,15,16,16,17,17,18,18,19,19,20,20,21,21,22,22,23,23,24,24,25,25,26,26,28,28,29,29,30,30,31,31,32,32,33,33,34,34,35,35,36,36,37,37,38,38,39,39,40,40,41,41,42,42,45,45,46,46,47,47,48,48,49,49,50,50,51,51,52,52],"right_children":[2,4,6,8,10,12,14,16,18,20,22,24,26,-1,28,30,32,34,36,38,40,42,44,46,48,50,52,-1,54,56,58,60,62,64,66,68,70,72,74,76,78,80,82,-1,-1,84,86,88,90,92,94,96,98,-1,-1,-1,-1,-1,-1,-1,-1,-1,-1,-1,-1,-1,-1,-1,-1,-1,-1,-1,-1,-1,-1,-1,-1,-1,-1,-1,-1,-1,-1,-1,-1,-1,-1,-1,-1,-1,-1,-1,-1,-1,-1,-1,-1,-1,-1],"split_conditions":[3E1,1.1999259E2,8E1,6.458266E0,1.3E1,1.7021773E2,9E1,5.999847E1,1.7E1,6E0,1.5559307E3,1.4438655E3,5E1,-7.1417086E-2,9.5E1,1.6058473E3,8E0,8.510749E1,9.181842E0,2.476635E2,2.7093384E0,2.6E1,9.181842E0,6E1,1.6423553E3,1.0525975E3,6E1,6.2933795E-2,8.319488E0,2.80675E-1,2.4093564E0,8.5098976E1,1.1663041E0,3.0176767E1,1.3E1,1.1919977E2,2.1E1,2E0,1.8807273E-2,9E0,1.1E1,-4.8051864E-1,8.108887E0,-5.6388497E-2,-7.018327E-2,5E1,2.7E1,7.25439E1,9.0538376E1,4E1,1.5559307E3,1.543E3,5.8965945E0,-6.2780626E-2,-9.849322E-3,-2.1410784E-2,-1.7397043E-3,3.8934894E-2,-1.868716E-2,1.8309906E-2,-1.2289779E-2,-1.6180312E-2,-3.9711867E-2,2.1824946E-3,-4.178479E-2,6.268965E-2,-2.3812847E-2,-6.734062E-2,-4.326285E-2,-4.178479E-2,-7.024485E-2,-1.5773503E-2,2.7992744E-2,2.1408288E-2,-2.430762E-2,-4.338637E-2,-5.518782E-2,-2.9142966E-2,-4.433645E-2,-6.684589E-2,-6.0803074E-2,-6.859599E-2,-7.144673E-2,4.315163E-2,-3.1016646E-2,6.1157256E-2,-8.244617E-3,6.630908E-2,5.61887E-2,4.7377665E-2,-5.6148036E-3,1.0400035E-2,4.180834E-2,1.0437495E-2,4.2008817E-2,-5.3217422E-2,-1.6763072E-2,5.85562E-2,-2.1044064E-2],"split_indices":[7,6,7,0,3,6,7,6,3,3,8,8,7,0,7,8,3,6,0,6,0,3,0,7,8,8,7,0,4,2,0,6,0,6,3,1,3,5,2,3,3,2,0,0,0,7,3,6,6,7,8,8,0,0,0,0,0,0,0,0,0,0,0,0,0,0,0,0,0,0,0,0,0,0,0,0,0,0,0,0,0,0,0,0,0,0,0,0,0,0,0,0,0,0,0,0,0,0,0],"split_type":[0,0,0,0,0,0,0,0,0,0,0,0,0,0,0,0,0,0,0,0,0,0,0,0,0,0,0,0,0,0,0,0,0,0,0,0,0,0,0,0,0,0,0,0,0,0,0,0,0,0,0,0,0,0,0,0,0,0,0,0,0,0,0,0,0,0,0,0,0,0,0,0,0,0,0,0,0,0,0,0,0,0,0,0,0,0,0,0,0,0,0,0,0,0,0,0,0,0,0],"sum_hessian":[4.300545E4,1.4103205E4,2.8902244E4,1.0113184E3,1.3091887E4,2.7696049E4,1.2061965E3,8.735116E2,1.378068E2,1.5472878E3,1.1544599E4,7.527821E3,2.0168227E4,1.0739893E3,1.3220721E2,3.8295267E2,4.9055893E2,1.3433423E1,1.2437336E2,1.225229E2,1.424765E3,9.960211E3,1.5843876E3,4.786012E3,2.7418083E3,1.8012842E4,2.1553862E3,1.2494697E2,7.2602463E0,3.2047208E2,6.2480583E1,6.774018E1,4.2281876E2,1.0479381E1,2.9540424E0,4.9064083E1,7.530928E1,3.1321703E1,9.12012E1,1.2310457E3,1.937193E2,1.8148583E3,8.1453525E3,1.314062E3,2.7032553E2,3.994609E3,7.9140356E2,2.551261E3,1.9054724E2,9.207514E3,8.805327E3,1.3712406E3,7.841456E2,5.28999E0,1.9702563E0,1.420181E2,1.78454E2,4.5500168E1,1.6980417E1,3.0441763E1,3.729842E1,1.00846146E2,3.219726E2,2.7048454E0,7.7745357E0,1.7441955E0,1.209847E0,1.71322E1,3.1931883E1,5.339002E0,6.9970276E1,9.278085E0,2.2043617E1,1.1228008E1,7.997319E1,4.3329874E2,7.9774695E2,1.0898615E2,8.4733154E1,6.233612E2,1.1914971E3,2.0896792E3,6.0556733E3,3.7926064E3,2.0200233E2,7.686287E2,2.2774868E1,1.3847866E3,1.1664744E3,1.5160872E2,3.8938515E1,6.388597E2,8.568654E3,4.695732E3,4.109595E3,9.33731E2,4.3750955E2,7.6589246E2,1.825314E1],"tree_param":{"num_deleted":"0","num_feature":"13","num_nodes":"99","size_leaf_vector":"1"}},{"base_weights":[1.6842663E-4,-1.205415E0,5.807593E-1,-5.451859E-1,-1.272042E0,6.536316E-1,-1.1230743E0,-4.3897367E-1,-1.1936212E0,-1.0248792E0,-1.3499739E0,1.0663496E0,5.756744E-1,-6.9935724E-2,1.0956125E0,-2.027144E-1,-7.177995E-1,-3.8420263E-1,-1.260954E0,-6.7146295E-1,-1.1045558E0,-1.3831614E0,-1.1874266E0,9.4548136E-1,1.2422322E0,6.5078074E-1,-3.0148568E-2,1.2253324E0,-9.991725E-1,8.564623E-2,-3.645439E-1,-1.18986614E-1,-8.057116E-1,-7.286936E-1,6.8236744E-1,-1.1138123E0,-1.3793343E0,-4.5758265E-1,-4.4400472E-2,-1.1502835E0,-9.120573E-1,-1.329713E0,-6.9739364E-2,-5.937133E-2,-6.902025E-2,9.552113E-1,-5.431394E-1,1.245379E0,-6.1132807E-2,6.6581076E-1,-5.272028E-1,-7.9077446E-1,1.1130749E0,1.230804E0,2.040537E-2,-6.1448127E-2,-9.129401E-3,-3.8949926E-3,2.5467156E-2,-3.143699E-2,-6.8001845E-3,-2.0379744E-2,8.731723E-3,-4.6293333E-2,-2.3117457E-2,-4.1128915E-2,-1.0612125E-2,-2.6767213E-2,6.82335E-2,-6.1070383E-2,-4.1128915E-2,-4.1128915E-2,-6.997788E-2,-2.6935047E-2,1.0933E-2,-5.2774694E-2,-5.937133E-2,-4.4400472E-2,-5.8991164E-2,-6.1465632E-2,-6.782164E-2,4.41758E-2,5.934431E-2,-7.852126E-2,3.137053E-2,6.247893E-2,-3.151319E-2,2.9477207E-2,4.6596777E-2,-1.599665E-2,-6.704503E-2,-5.0862756E-2,-1.5459596E-2,5.658075E-2,-6.626996E-2,6.823248E-2,5.6760438E-2],"categories":[],"categories_nodes":[],"categories_segments":[],"categories_sizes":[],"default_left":[0,0,0,0,0,0,0,0,0,0,0,0,0,0,0,0,0,0,0,0,0,0,0,0,0,0,0,0,0,0,0,0,0,0,0,0,0,0,0,0,0,0,0,0,0,0,0,0,0,0,0,0,0,0,0,0,0,0,0,0,0,0,0,0,0,0,0,0,0,0,0,0,0,0,0,0,0,0,0,0,0,0,0,0,0,0,0,0,0,0,0,0,0,0,0,0,0],"id":11,"left_children":[1,3,5,7,9,11,13,15,17,19,21,23,25,-1,27,29,31,33,35,37,39,41,43,45,47,49,51,53,55,57,59,61,63,65,67,69,71,73,-1,75,77,79,-1,-1,-1,81,83,85,-1,87,89,91,93,95,-1,-1,-1,-1,-1,-1,-1,-1,-1,-1,-1,-1,-1,-1,-1,-1,-1,-1,-1,-1,-1,-1,-1,-1,-1,-1,-1,-1,-1,-1,-1,-1,-1,-1,-1,-1,-1,-1,-1,-1,-1,-1,-1],"loss_changes":[2.964608E4,6.0491016E2,3.5502002E3,8.651059E1,2.3947656E2,8.8145996E2,7.1882263E2,7.148981E1,9.177338E0,8.378418E1,6.207422E1,9.1396484E1,1.0493618E3,0E0,3.6596893E1,2.7565887E1,2.6140991E1,6.0280437E0,1.3068848E0,4.0932755E1,2.049878E1,3.2480469E0,6.8570557E0,3.796167E1,1.5254639E1,3.636289E2,2.2136436E3,4.7821045E-2,1.3033476E0,1.479328E1,2.2745914E1,5.577324E0,2.1752808E1,1.1175056E0,4.212968E0,2.8553085E0,3.4687805E-1,2.017382E1,0E0,1.128418E1,2.590091E1,2.3254395E0,0E0,0E0,0E0,4.16167E1,2.1937988E1,1.4719482E1,0E0,4.1066016E2,4.3261795E1,1.6640973E2,4.748059E1,8.2092285E-3,0E0,0E0,0E0,0E0,0E0,0E0,0E0,0E0,0E0,0E0,0E0,0E0,0E0,0E0,0E0,0E0,0E0,0E0,0E0,0E0,0E0,0E0,0E0,0E0,0E0,0E0,0E0,0E0,0E0,0E0,0E0,0E0,0E0,0E0,0E0,0E0,0E0,0E0,0E0,0E0,0E0,0E0,0E0],"parents":[2147483647,0,0,1,1,2,2,3,3,4,4,5,5,6,6,7,7,8,8,9,9,10,10,11,11,12,12,14,14,15,15,16,16,17,17,18,18,19,19,20,20,21,21,22,22,23,23,24,24,25,25,26,26,27,27,28,28,29,29,30,30,31,31,32,32,33,33,34,34,35,35,36,36,37,37,39,39,40,40,41,41,45,45,46,46,47,47,49,49,50,50,51,51,52,52,53,53],"right_children":[2,4,6,8,10,12,14,16,18,20,22,24,26,-1,28,30,32,34,36,38,40,42,44,46,48,50,52,54,56,58,60,62,64,66,68,70,72,74,-1,76,78,80,-1,-1,-1,82,84,86,-1,88,90,92,94,96,-1,-1,-1,-1,-1,-1,-1,-1,-1,-1,-1,-1,-1,-1,-1,-1,-1,-1,-1,-1,-1,-1,-1,-1,-1,-1,-1,-1,-1,-1,-1,-1,-1,-1,-1,-1,-1,-1,-1,-1,-1,-1,-1],"split_conditions":[3E1,1.5764076E2,8E1,6.458266E0,2.1E1,8.510749E1,9E1,8.5098976E1,1.7E1,9E0,1.543E3,1.4151311E3,5E1,-6.9935724E-2,9.5E1,1.3492783E0,8E0,1.4599955E3,1.0321994E1,1.1818439E3,1.5512976E3,4.3E1,9.181842E0,7.096405E0,1.0727312E1,1.6520265E3,6E1,3.5729572E2,1.2552644E3,1.535808E3,4.2838046E-1,4E0,1.535808E3,6.0353252E1,1.0798799E2,4.6788044E0,2E1,2.6492996E0,-4.4400472E-2,9.653543E2,1.610392E3,3.6277792E2,-6.9739364E-2,-5.937133E-2,-6.902025E-2,6E1,9.127078E2,4.5E1,-6.1132807E-2,1.5591199E3,1.4E1,1.543E3,1.0321994E1,9.8375415E2,2.040537E-2,-6.1448127E-2,-9.129401E-3,-3.8949926E-3,2.5467156E-2,-3.143699E-2,-6.8001845E-3,-2.0379744E-2,8.731723E-3,-4.6293333E-2,-2.3117457E-2,-4.1128915E-2,-1.0612125E-2,-2.6767213E-2,6.82335E-2,-6.1070383E-2,-4.1128915E-2,-4.1128915E-2,-6.997788E-2,-2.6935047E-2,1.0933E-2,-5.2774694E-2,-5.937133E-2,-4.4400472E-2,-5.8991164E-2,-6.1465632E-2,-6.782164E-2,4.41758E-2,5.934431E-2,-7.852126E-2,3.137053E-2,6.247893E-2,-3.151319E-2,2.9477207E-2,4.6596777E-2,-1.599665E-2,-6.704503E-2,-5.0862756E-2,-1.5459596E-2,5.658075E-2,-6.626996E-2,6.823248E-2,5.6760438E-2],"split_indices":[7,6,7,0,3,6,7,6,3,3,8,8,7,0,7,0,3,8,0,8,8,3,0,0,0,8,7,1,8,8,2,5,8,6,1,4,3,0,0,8,8,6,0,0,0,7,8,3,0,8,3,8,0,8,0,0,0,0,0,0,0,0,0,0,0,0,0,0,0,0,0,0,0,0,0,0,0,0,0,0,0,0,0,0,0,0,0,0,0,0,0,0,0,0,0,0,0],"split_type":[0,0,0,0,0,0,0,0,0,0,0,0,0,0,0,0,0,0,0,0,0,0,0,0,0,0,0,0,0,0,0,0,0,0,0,0,0,0,0,0,0,0,0,0,0,0,0,0,0,0,0,0,0,0,0,0,0,0,0,0,0,0,0,0,0,0,0,0,0,0,0,0,0,0,0,0,0,0,0,0,0,0,0,0,0,0,0,0,0,0,0,0,0,0,0,0,0],"sum_hessian":[4.2352523E4,1.3766218E4,2.8586305E4,1.2627188E3,1.2503499E4,2.7414418E4,1.1718882E3,1.0864393E3,1.7627942E2,3.000736E3,9.502763E3,4.3535186E3,2.3060898E4,1.0427153E3,1.291729E2,5.8904614E2,4.9739316E2,1.4052936E1,1.6222649E2,5.537829E2,2.4469531E3,8.210215E3,1.2925482E3,2.5840862E3,1.7694326E3,2.051722E4,2.5436777E3,1.2203116E2,7.141746E0,2.1191322E2,3.7713293E2,6.3975792E1,4.3341736E2,1.0861554E1,3.1913807E0,7.6967674E1,8.525882E1,3.6461472E2,1.8916817E2,1.9732388E3,4.7371436E2,1.4874008E3,6.722814E3,9.8759735E2,3.0495087E2,2.5676616E3,1.6424425E1,1.7676708E3,1.7618779E0,2.0259166E4,2.5805423E2,1.5276127E3,1.01606494E3,1.2071684E2,1.3143163E0,5.1792746E0,1.9624712E0,1.5348463E2,5.8428593E1,1.7410913E2,2.0302382E2,3.2067547E1,3.1908245E1,3.3962802E2,9.378934E1,6.7645283E0,4.097026E0,1.2233832E0,1.9679977E0,6.277869E1,1.4188983E1,2.866293E0,8.2392525E1,3.257437E2,3.8871002E1,8.84761E2,1.0884778E3,1.5807053E2,3.1564383E2,3.2252203E2,1.1648788E3,1.9645236E3,6.0313806E2,8.565578E0,7.858846E0,1.7640548E3,3.615986E0,1.5748996E4,4.5101704E3,2.067762E2,5.1278034E1,1.038235E3,4.8937778E2,1.0089299E3,7.1350737E0,4.4764942E1,7.59519E1],"tree_param":{"num_deleted":"0","num_feature":"13","num_nodes":"97","size_leaf_vector":"1"}},{"base_weights":[1.4112417E-4,-1.1747757E0,5.581037E-1,-5.2243024E-1,-1.2418162E0,6.2765473E-1,-1.1004746E0,-4.1940928E-1,-1.1627898E0,-9.925279E-1,-1.3212781E0,1.0330162E0,5.518634E-1,-6.858384E-2,1.0671138E0,-8.475449E-2,-6.0205024E-1,-3.712045E-1,-1.2300797E0,-5.5347204E-1,-1.0551586E0,-1.3555002E0,-1.156903E0,9.122622E-1,1.2104459E0,6.233318E-1,-2.9069547E-2,1.1944621E0,-9.7281796E-1,9.5323074E-1,-1.398547E-1,3.8843382E-2,-7.020986E-1,-7.05108E-1,6.589206E-1,-1.0814383E0,-1.350679E0,-3.3982095E-1,-4.0215768E-2,-1.156903E0,-9.950578E-1,-1.3005382E0,-6.837442E-2,-5.7845153E-2,-6.76386E-2,8.44333E-1,1.1321311E0,1.2388067E0,8.828235E-1,6.378253E-1,-4.9924242E-1,-7.607353E-1,1.0804499E0,1.199856E0,1.990996E-2,-6.0060836E-2,-8.8333255E-3,1.2440203E-3,6.229641E-2,-1.8593276E-2,2.1930642E-3,1.16458675E-2,-1.3171355E-2,-4.140974E-2,-1.658138E-2,-4.0032104E-2,-1.0200506E-2,-2.6081456E-2,6.598955E-2,-6.524591E-2,-4.2383533E-2,-4.0032104E-2,-6.856251E-2,-2.0848826E-2,2.2640375E-2,-5.7845153E-2,-4.0215768E-2,-5.1808327E-2,-4.1313637E-2,-5.994906E-2,-6.638361E-2,4.4399396E-2,-7.2770487E-3,5.895392E-2,-1.37865245E-2,6.2113654E-2,-5.8403004E-2,-1.8675385E-2,4.7169767E-2,2.8202618E-2,4.4832997E-2,-1.5152697E-2,-6.335484E-2,-4.9180623E-2,-1.471031E-2,5.4927833E-2,-6.4235024E-2,6.6712074E-2,5.5217143E-2],"categories":[],"categories_nodes":[],"categories_segments":[],"categories_sizes":[],"default_left":[0,0,0,0,0,0,0,0,0,0,0,0,0,0,0,0,0,0,0,0,0,0,0,0,0,0,0,0,0,0,0,0,0,0,0,0,0,0,0,0,0,0,0,0,0,0,0,0,0,0,0,0,0,0,0,0,0,0,0,0,0,0,0,0,0,0,0,0,0,0,0,0,0,0,0,0,0,0,0,0,0,0,0,0,0,0,0,0,0,0,0,0,0,0,0,0,0,0,0],"id":12,"left_children":[1,3,5,7,9,11,13,15,17,19,21,23,25,-1,27,29,31,33,35,37,39,41,43,45,47,49,51,53,55,57,59,61,63,65,67,69,71,73,-1,75,77,79,-1,-1,-1,81,83,85,87,89,91,93,95,97,-1,-1,-1,-1,-1,-1,-1,-1,-1,-1,-1,-1,-1,-1,-1,-1,-1,-1,-1,-1,-1,-1,-1,-1,-1,-1,-1,-1,-1,-1,-1,-1,-1,-1,-1,-1,-1,-1,-1,-1,-1,-1,-1,-1,-1],"loss_changes":[2.7331797E4,5.864453E2,3.2615693E3,8.215735E1,2.3981445E2,8.3297266E2,6.7047046E2,6.600371E1,8.760925E0,8.043237E1,6.354004E1,9.043652E1,9.4910254E2,0E0,3.41848E1,2.2022781E1,4.4846146E1,5.6205864E0,1.3905945E0,3.0022675E1,1.9775879E1,3.4707031E0,6.5494385E0,3.7075195E1,1.495459E1,3.315005E2,2.0344773E3,3.8024902E-2,1.246232E0,5.24605E0,1.554461E1,5.6536813E0,2.9821167E1,1.0630493E0,3.9545908E0,2.8779984E0,3.708954E-1,1.5479605E1,0E0,4.765625E-1,1.1804199E1,2.3952637E0,0E0,0E0,0E0,8.436304E1,3.985559E1,1.4691895E1,1.1088432E1,3.8323145E2,3.8786163E1,1.567398E2,4.4061768E1,5.128479E-2,0E0,0E0,0E0,0E0,0E0,0E0,0E0,0E0,0E0,0E0,0E0,0E0,0E0,0E0,0E0,0E0,0E0,0E0,0E0,0E0,0E0,0E0,0E0,0E0,0E0,0E0,0E0,0E0,0E0,0E0,0E0,0E0,0E0,0E0,0E0,0E0,0E0,0E0,0E0,0E0,0E0,0E0,0E0,0E0,0E0],"parents":[2147483647,0,0,1,1,2,2,3,3,4,4,5,5,6,6,7,7,8,8,9,9,10,10,11,11,12,12,14,14,15,15,16,16,17,17,18,18,19,19,20,20,21,21,22,22,23,23,24,24,25,25,26,26,27,27,28,28,29,29,30,30,31,31,32,32,33,33,34,34,35,35,36,36,37,37,39,39,40,40,41,41,45,45,46,46,47,47,48,48,49,49,50,50,51,51,52,52,53,53],"right_children":[2,4,6,8,10,12,14,16,18,20,22,24,26,-1,28,30,32,34,36,38,40,42,44,46,48,50,52,54,56,58,60,62,64,66,68,70,72,74,-1,76,78,80,-1,-1,-1,82,84,86,88,90,92,94,96,98,-1,-1,-1,-1,-1,-1,-1,-1,-1,-1,-1,-1,-1,-1,-1,-1,-1,-1,-1,-1,-1,-1,-1,-1,-1,-1,-1,-1,-1,-1,-1,-1,-1,-1,-1,-1,-1,-1,-1,-1,-1,-1,-1,-1,-1],"split_conditions":[3E1,1.5764076E2,8E1,6.458266E0,2.1E1,8.510749E1,9E1,5.999847E1,1.7E1,8E0,1.543E3,1.4151311E3,5E1,-6.858384E-2,9.5E1,2.9995644E1,8E0,1.4599955E3,1.0321994E1,1.1818439E3,-4.8550996E-1,4.3E1,9.181842E0,6E1,1.6423553E3,1.6520265E3,6E1,3.5729572E2,1.2552644E3,2.9994732E1,2.80675E-1,2.0432489E2,1.4290045E3,6.0353252E1,1.0798799E2,4.9208418E-1,2E1,3.0010047E0,-4.0215768E-2,2.8298926E2,1.5559307E3,3.6277792E2,-6.837442E-2,-5.7845153E-2,-6.76386E-2,5E1,2.7E1,1.0727312E1,3.6220973E0,1.5591199E3,1.4E1,1.543E3,1.0321994E1,9.8375415E2,1.990996E-2,-6.0060836E-2,-8.8333255E-3,1.2440203E-3,6.229641E-2,-1.8593276E-2,2.1930642E-3,1.16458675E-2,-1.3171355E-2,-4.140974E-2,-1.658138E-2,-4.0032104E-2,-1.0200506E-2,-2.6081456E-2,6.598955E-2,-6.524591E-2,-4.2383533E-2,-4.0032104E-2,-6.856251E-2,-2.0848826E-2,2.2640375E-2,-5.7845153E-2,-4.0215768E-2,-5.1808327E-2,-4.1313637E-2,-5.994906E-2,-6.638361E-2,4.4399396E-2,-7.2770487E-3,5.895392E-2,-1.37865245E-2,6.2113654E-2,-5.8403004E-2,-1.8675385E-2,4.7169767E-2,2.8202618E-2,4.4832997E-2,-1.5152697E-2,-6.335484E-2,-4.9180623E-2,-1.471031E-2,5.4927833E-2,-6.4235024E-2,6.6712074E-2,5.5217143E-2],"split_indices":[7,6,7,0,3,6,7,6,3,3,8,8,7,0,7,6,3,8,0,8,2,3,0,7,8,8,7,1,8,6,2,1,8,6,1,2,3,0,0,9,8,6,0,0,0,7,3,0,4,8,3,8,0,8,0,0,0,0,0,0,0,0,0,0,0,0,0,0,0,0,0,0,0,0,0,0,0,0,0,0,0,0,0,0,0,0,0,0,0,0,0,0,0,0,0,0,0,0,0],"split_type":[0,0,0,0,0,0,0,0,0,0,0,0,0,0,0,0,0,0,0,0,0,0,0,0,0,0,0,0,0,0,0,0,0,0,0,0,0,0,0,0,0,0,0,0,0,0,0,0,0,0,0,0,0,0,0,0,0,0,0,0,0,0,0,0,0,0,0,0,0,0,0,0,0,0,0,0,0,0,0,0,0,0,0,0,0,0,0,0,0,0,0,0,0,0,0,0,0,0,0],"sum_hessian":[4.1690312E4,1.3423333E4,2.8266979E4,1.2517577E3,1.2171575E4,2.712993E4,1.1370483E3,1.0797091E3,1.7204852E2,2.9452393E3,9.226336E3,4.271526E3,2.2858404E4,1.0109309E3,1.2611742E2,3.8172852E2,6.9798065E2,1.39899435E1,1.580586E2,3.6891287E2,2.5763264E3,7.9652056E3,1.2611305E3,2.5453613E3,1.7261649E3,2.0354277E4,2.5041272E3,1.19096924E2,7.020492E0,1.8420507E1,3.63308E2,9.432994E1,6.036507E2,1.0803593E1,3.1863508E0,7.5262764E1,8.279582E1,2.4903072E2,1.19882164E2,7.52676E2,1.8236503E3,1.4458568E3,6.519349E3,9.652586E2,2.9587186E2,1.9482751E3,5.9708606E2,1.5860833E3,1.4008167E2,2.009526E4,2.5901776E2,1.5092054E3,9.9492175E2,1.1779212E2,1.3047955E0,5.0600834E0,1.9604086E0,4.6756663E0,1.3744841E1,1.6009874E2,2.0320927E2,5.7586037E1,3.67439E1,4.5694144E2,1.4670926E2,6.713817E0,4.089775E0,1.2191709E0,1.9671798E0,3.6135464E1,3.91273E1,2.8250372E0,7.997079E1,2.2737196E2,2.1658766E1,7.471963E2,5.4797006E0,1.462347E3,3.613033E2,3.1437982E2,1.1314769E3,1.866081E3,8.219406E1,5.7797516E2,1.9110918E1,1.5842854E3,1.7978086E0,6.2055154E0,1.3387616E2,1.5640569E4,4.4546904E3,2.0741695E2,5.1600807E1,1.0205463E3,4.8865906E2,9.878943E2,7.0274534E0,4.3549538E1,7.424259E1],"tree_param":{"num_deleted":"0","num_feature":"13","num_nodes":"99","size_leaf_vector":"1"}},{"base_weights":[4.421691E-5,-1.1460643E0,5.3651136E-1,-5.009168E-1,-1.2136419E0,6.0289955E-1,-1.0796902E0,-4.0087202E-1,-1.134338E0,-9.622748E-1,-1.2947322E0,8.880105E-1,4.9873883E-1,-6.734655E-2,1.0402603E0,-1.8824291E-1,-6.749183E-1,-3.5879177E-1,-1.2017012E0,-6.192282E-1,-1.041521E0,-1.3300838E0,-1.1285036E0,7.740423E-1,1.1194009E0,5.693996E-1,-1.0615032E-1,1.165413E0,-9.4781363E-1,7.949968E-2,-3.4102073E-1,-1.0767797E-1,-7.601834E-1,-6.824421E-1,6.3696206E-1,-1.0520065E0,-1.3243161E0,-4.1208708E-1,-4.151873E-2,-1.0885365E0,-8.4494555E-1,-1.287781E0,-6.735085E-2,-5.642518E-2,-6.636846E-2,7.108496E-1,1.0960621E0,1.1592348E0,6.404626E-1,7.1280247E-1,4.194803E-1,-7.432416E-1,1.0357369E0,5.923668E-1,1.1765099E0,-5.8898415E-2,-8.162457E-3,-4.213862E-3,2.4749314E-2,-3.393974E-2,-9.204607E-3,-1.989129E-2,9.326717E-3,-4.3615583E-2,-2.1696536E-2,-2.6329015E-3,-3.9012324E-2,-2.54178E-2,6.391075E-2,-6.378468E-2,-4.101737E-2,-3.9012324E-2,-6.72655E-2,-2.4414873E-2,1.076459E-2,-4.9554426E-2,-5.642518E-2,-4.151873E-2,-5.6026857E-2,-5.8350425E-2,-6.518491E-2,3.89513E-2,-2.8132284E-2,5.666988E-2,-9.120121E-3,5.9732586E-2,4.1453406E-2,4.2094763E-2,-5.5581196E-3,7.1271965E-3,3.7785154E-2,7.1601192E-3,3.7027262E-2,-4.82698E-2,-1.4507811E-2,5.3647943E-2,-2.19162E-2,-1.4625864E-2,4.8041932E-2,5.9106182E-2,1.942807E-2],"categories":[],"categories_nodes":[],"categories_segments":[],"categories_sizes":[],"default_left":[0,0,0,0,0,0,0,0,0,0,0,0,0,0,0,0,0,0,0,0,0,0,0,0,0,0,0,0,0,0,0,0,0,0,0,0,0,0,0,0,0,0,0,0,0,0,0,0,0,0,0,0,0,0,0,0,0,0,0,0,0,0,0,0,0,0,0,0,0,0,0,0,0,0,0,0,0,0,0,0,0,0,0,0,0,0,0,0,0,0,0,0,0,0,0,0,0,0,0,0,0],"id":13,"left_children":[1,3,5,7,9,11,13,15,17,19,21,23,25,-1,27,29,31,33,35,37,39,41,43,45,47,49,51,53,55,57,59,61,63,65,67,69,71,73,-1,75,77,79,-1,-1,-1,81,83,85,87,89,91,93,95,97,99,-1,-1,-1,-1,-1,-1,-1,-1,-1,-1,-1,-1,-1,-1,-1,-1,-1,-1,-1,-1,-1,-1,-1,-1,-1,-1,-1,-1,-1,-1,-1,-1,-1,-1,-1,-1,-1,-1,-1,-1,-1,-1,-1,-1,-1,-1],"loss_changes":[2.522299E4,5.696328E2,2.9988809E3,7.824271E1,2.4006836E2,7.9667676E2,6.2622986E2,6.2456238E1,8.3897705E0,7.796118E1,6.512402E1,1.8850244E2,8.404346E2,0E0,3.1964935E1,2.4822376E1,2.259465E1,5.242791E0,1.4504089E0,3.8169235E1,2.0775635E1,3.7949219E0,6.161377E0,9.719165E1,4.442383E1,3.7819238E2,1.4974939E3,4.7927856E-2,1.2336674E0,1.5082499E1,2.0342438E1,5.403694E0,1.8657486E1,1.0937696E0,3.7174792E0,2.8203506E0,3.9559937E-1,1.7364906E1,0E0,1.1762207E1,2.4846924E1,2.7641602E0,0E0,0E0,0E0,3.501161E2,3.781714E1,2.4553223E1,2.7954521E1,2.199917E2,7.635803E2,1.3270276E2,4.091919E1,1.6632867E0,4.449463E-2,0E0,0E0,0E0,0E0,0E0,0E0,0E0,0E0,0E0,0E0,0E0,0E0,0E0,0E0,0E0,0E0,0E0,0E0,0E0,0E0,0E0,0E0,0E0,0E0,0E0,0E0,0E0,0E0,0E0,0E0,0E0,0E0,0E0,0E0,0E0,0E0,0E0,0E0,0E0,0E0,0E0,0E0,0E0,0E0,0E0,0E0],"parents":[2147483647,0,0,1,1,2,2,3,3,4,4,5,5,6,6,7,7,8,8,9,9,10,10,11,11,12,12,14,14,15,15,16,16,17,17,18,18,19,19,20,20,21,21,22,22,23,23,24,24,25,25,26,26,27,27,28,28,29,29,30,30,31,31,32,32,33,33,34,34,35,35,36,36,37,37,39,39,40,40,41,41,45,45,46,46,47,47,48,48,49,49,50,50,51,51,52,52,53,53,54,54],"right_children":[2,4,6,8,10,12,14,16,18,20,22,24,26,-1,28,30,32,34,36,38,40,42,44,46,48,50,52,54,56,58,60,62,64,66,68,70,72,74,-1,76,78,80,-1,-1,-1,82,84,86,88,90,92,94,96,98,100,-1,-1,-1,-1,-1,-1,-1,-1,-1,-1,-1,-1,-1,-1,-1,-1,-1,-1,-1,-1,-1,-1,-1,-1,-1,-1,-1,-1,-1,-1,-1,-1,-1,-1,-1,-1,-1,-1,-1,-1,-1,-1,-1,-1,-1,-1],"split_conditions":[3E1,1.5764076E2,8E1,6.458266E0,2.1E1,1.7021773E2,9E1,8.510749E1,1.7E1,9E0,1.543E3,1.5512976E3,5E1,-6.734655E-2,9.5E1,1.3676994E0,8E0,1.4599955E3,1.0321994E1,1.1818439E3,1.5512976E3,8.108887E0,9.181842E0,6E1,1.6423553E3,1.0525975E3,6E1,3.7365549E0,8.319488E0,1.535808E3,-4.8051864E-1,4E0,1.5055587E3,3.0176767E1,1.0798799E2,4.9208418E-1,2E1,2.6492996E0,-4.151873E-2,9.653543E2,1.610392E3,3.202108E2,-6.735085E-2,-5.642518E-2,-6.636846E-2,5E1,2.8E1,1.9986243E0,9.0538376E1,4E1,1.5559307E3,1.543E3,5.8965945E0,3.3755112E-1,3.5729572E2,-5.8898415E-2,-8.162457E-3,-4.213862E-3,2.4749314E-2,-3.393974E-2,-9.204607E-3,-1.989129E-2,9.326717E-3,-4.3615583E-2,-2.1696536E-2,-2.6329015E-3,-3.9012324E-2,-2.54178E-2,6.391075E-2,-6.378468E-2,-4.101737E-2,-3.9012324E-2,-6.72655E-2,-2.4414873E-2,1.076459E-2,-4.9554426E-2,-5.642518E-2,-4.151873E-2,-5.6026857E-2,-5.8350425E-2,-6.518491E-2,3.89513E-2,-2.8132284E-2,5.666988E-2,-9.120121E-3,5.9732586E-2,4.1453406E-2,4.2094763E-2,-5.5581196E-3,7.1271965E-3,3.7785154E-2,7.1601192E-3,3.7027262E-2,-4.82698E-2,-1.4507811E-2,5.3647943E-2,-2.19162E-2,-1.4625864E-2,4.8041932E-2,5.9106182E-2,1.942807E-2],"split_indices":[7,6,7,0,3,6,7,6,3,3,8,8,7,0,7,0,3,8,0,8,8,0,0,7,8,8,7,4,4,8,2,5,8,6,1,2,3,0,0,8,8,6,0,0,0,7,3,0,6,7,8,8,0,2,1,0,0,0,0,0,0,0,0,0,0,0,0,0,0,0,0,0,0,0,0,0,0,0,0,0,0,0,0,0,0,0,0,0,0,0,0,0,0,0,0,0,0,0,0,0,0],"split_type":[0,0,0,0,0,0,0,0,0,0,0,0,0,0,0,0,0,0,0,0,0,0,0,0,0,0,0,0,0,0,0,0,0,0,0,0,0,0,0,0,0,0,0,0,0,0,0,0,0,0,0,0,0,0,0,0,0,0,0,0,0,0,0,0,0,0,0,0,0,0,0,0,0,0,0,0,0,0,0,0,0,0,0,0,0,0,0,0,0,0,0,0,0,0,0,0,0,0,0,0,0],"sum_hessian":[4.1021027E4,1.3078654E4,2.7942375E4,1.2408624E3,1.1837792E4,2.6840484E4,1.1018904E3,1.0730189E3,1.6784349E2,2.8905151E3,8.947277E3,7.1799224E3,1.9660562E4,9.7886E2,1.2303037E2,6.051654E2,4.678535E2,1.39192E1,1.539243E2,5.4407916E2,2.346436E3,7.717933E3,1.2293439E3,4.813462E3,2.3664602E3,1.760417E4,2.056391E3,1.1613337E2,6.8969984E0,2.2003482E2,3.8513058E2,6.143172E1,4.0642175E2,1.0742279E1,3.1769207E0,7.3622215E1,8.030208E1,3.5998706E2,1.8409207E2,1.8898877E3,4.5654834E2,2.22827E3,5.489663E3,9.426349E2,2.8670905E2,4.0265122E3,7.869499E2,2.1834402E3,1.8301984E2,8.995712E3,8.608459E3,1.3201764E3,7.362147E2,3.239241E0,1.12894135E2,4.9449506E0,1.9520478E0,1.583955E2,6.163933E1,1.2111545E2,2.6401514E2,3.0752192E1,3.0679527E1,3.2272156E2,8.37002E1,2.4282756E0,8.314004E0,1.214677E0,1.9622436E0,3.5162746E1,3.8459473E1,2.7834861E0,7.751859E1,3.211922E2,3.8794865E1,8.4929877E2,1.0405889E3,1.5309085E2,3.034575E2,2.6813196E2,1.9601382E3,3.8222754E3,2.0423665E2,7.6473065E2,2.2219261E1,1.9695482E3,2.1389201E2,1.4424312E2,3.877671E1,6.297013E2,8.366011E3,4.627725E3,3.980734E3,8.850787E2,4.3509778E2,7.183477E2,1.786704E1,1.0128995E0,2.2263412E0,1.11598785E2,1.2953461E0],"tree_param":{"num_deleted":"0","num_feature":"13","num_nodes":"101","size_leaf_vector":"1"}},{"base_weights":[4.6630274E-5,-1.1188195E0,5.158876E-1,-4.8022962E-1,-1.1870506E0,5.792594E-1,-1.0605484E0,-3.8304836E-1,-1.1073463E0,-9.9206346E-1,-1.2957324E0,9.744439E-1,5.068785E-1,-6.621118E-2,1.0147254E0,-1.7167184E-1,-6.387452E-1,-3.4498787E-1,-1.1750125E0,-5.966028E-1,-1.0514834E0,-1.3164546E0,-1.1438979E0,8.5412395E-1,1.1546112E0,5.717716E-1,-2.9040935E-2,1.1378398E0,-9.239595E-1,9.1206074E-1,-2.0812199E-1,-8.866143E-1,-4.6311834E-1,-6.58372E-1,6.163494E-1,-1.2396494E0,-9.037829E-1,-3.936629E-1,-4.1202154E-2,-1.1154591E0,-8.5809684E-1,-1.2819413E0,-6.625228E-2,-5.7194896E-2,-6.5322906E-2,8.644134E-1,-5.0736135E-1,1.1721798E0,5.991818E-1,6.176658E-1,2.0810421E-1,-7.078781E-1,1.0201157E0,5.764523E-1,1.1488279E0,-5.7668697E-2,-7.898218E-3,6.889694E-4,5.9920646E-2,5.361084E-3,-1.6915653E-2,-5.0945874E-2,-1.31525695E-2,-3.739192E-2,-1.1120452E-2,-3.800001E-2,-8.291002E-3,-2.4775174E-2,6.1978757E-2,-3.817438E-2,-6.291544E-2,-3.800001E-2,-6.2532954E-2,1.1354609E-3,-2.5462082E-2,-4.8060596E-2,-5.7194896E-2,-4.1202154E-2,-5.2838612E-2,-5.754772E-2,-6.4567864E-2,3.9714705E-2,5.4909952E-2,-7.3539846E-2,3.1641435E-2,6.0143452E-2,4.4284042E-2,3.55003E-2,-9.429557E-2,2.7175695E-2,4.3111216E-2,1.56228095E-2,-3.646814E-2,-4.6112966E-2,-1.3651405E-2,5.2196663E-2,-3.5789337E-2,-1.4211322E-2,4.7090743E-2,5.7719775E-2,1.8959224E-2],"categories":[],"categories_nodes":[],"categories_segments":[],"categories_sizes":[],"default_left":[0,0,0,0,0,0,0,0,0,0,0,0,0,0,0,0,0,0,0,0,0,0,0,0,0,0,0,0,0,0,0,0,0,0,0,0,0,0,0,0,0,0,0,0,0,0,0,0,0,0,0,0,0,0,0,0,0,0,0,0,0,0,0,0,0,0,0,0,0,0,0,0,0,0,0,0,0,0,0,0,0,0,0,0,0,0,0,0,0,0,0,0,0,0,0,0,0,0,0,0,0],"id":14,"left_children":[1,3,5,7,9,11,13,15,17,19,21,23,25,-1,27,29,31,33,35,37,39,41,43,45,47,49,51,53,55,57,59,61,63,65,67,69,71,73,-1,75,77,79,-1,-1,-1,81,83,85,87,89,91,93,95,97,99,-1,-1,-1,-1,-1,-1,-1,-1,-1,-1,-1,-1,-1,-1,-1,-1,-1,-1,-1,-1,-1,-1,-1,-1,-1,-1,-1,-1,-1,-1,-1,-1,-1,-1,-1,-1,-1,-1,-1,-1,-1,-1,-1,-1,-1,-1],"loss_changes":[2.3287588E4,5.5419727E2,2.7595444E3,7.458313E1,2.424707E2,7.589346E2,5.8554126E2,5.756813E1,8.085983E0,9.620801E1,2.5316406E1,8.808594E1,7.804917E2,0E0,2.9912704E1,2.33213E1,2.0597198E1,4.87504E0,1.5228882E0,3.786699E1,4.335132E1,2.6171875E-1,5.2264404E0,3.500525E1,1.5324463E1,3.3397803E2,1.7277397E3,4.1885376E-2,1.1836381E0,4.9325085E0,2.3328135E1,1.6152191E1,1.9334751E1,1.0859938E0,3.4992852E0,9.713745E-2,3.6860104E0,1.7292011E1,0E0,1.9985107E1,2.827533E1,1.7675781E-1,0E0,0E0,0E0,3.9279785E1,2.1954195E1,1.5081055E1,1.5771566E1,3.2186035E2,2.1981616E2,1.3705414E2,4.014966E1,1.5879393E0,3.768921E-2,0E0,0E0,0E0,0E0,0E0,0E0,0E0,0E0,0E0,0E0,0E0,0E0,0E0,0E0,0E0,0E0,0E0,0E0,0E0,0E0,0E0,0E0,0E0,0E0,0E0,0E0,0E0,0E0,0E0,0E0,0E0,0E0,0E0,0E0,0E0,0E0,0E0,0E0,0E0,0E0,0E0,0E0,0E0,0E0,0E0,0E0],"parents":[2147483647,0,0,1,1,2,2,3,3,4,4,5,5,6,6,7,7,8,8,9,9,10,10,11,11,12,12,14,14,15,15,16,16,17,17,18,18,19,19,20,20,21,21,22,22,23,23,24,24,25,25,26,26,27,27,28,28,29,29,30,30,31,31,32,32,33,33,34,34,35,35,36,36,37,37,39,39,40,40,41,41,45,45,46,46,47,47,48,48,49,49,50,50,51,51,52,52,53,53,54,54],"right_children":[2,4,6,8,10,12,14,16,18,20,22,24,26,-1,28,30,32,34,36,38,40,42,44,46,48,50,52,54,56,58,60,62,64,66,68,70,72,74,-1,76,78,80,-1,-1,-1,82,84,86,88,90,92,94,96,98,100,-1,-1,-1,-1,-1,-1,-1,-1,-1,-1,-1,-1,-1,-1,-1,-1,-1,-1,-1,-1,-1,-1,-1,-1,-1,-1,-1,-1,-1,-1,-1,-1,-1,-1,-1,-1,-1,-1,-1,-1,-1,-1,-1,-1,-1,-1],"split_conditions":[3E1,1.5764076E2,8E1,6.458266E0,3.3E1,8.510749E1,9E1,8.5098976E1,1.7E1,9E0,1.543E3,1.4151311E3,5E1,-6.621118E-2,9.5E1,2.9995644E1,-4.8051864E-1,1.4599955E3,4.6788044E0,1.1818439E3,1.535808E3,7.750877E0,9.181842E0,6.7765923E0,2.7E1,1.6213256E0,6E1,3.7365549E0,8.319488E0,2.9994732E1,1E1,1.5055587E3,4.912098E0,6.0353252E1,1.0798799E2,6.7765923E0,9.1963696E2,6E0,-4.1202154E-2,1.3E1,1.6091057E3,3.0767303E2,-6.625228E-2,-5.7194896E-2,-6.5322906E-2,6E1,9.127078E2,1.6423553E3,1.6230616E3,1.5591199E3,2.7E1,1.543E3,7.750877E0,3.3755112E-1,3.5729572E2,-5.7668697E-2,-7.898218E-3,6.889694E-4,5.9920646E-2,5.361084E-3,-1.6915653E-2,-5.0945874E-2,-1.31525695E-2,-3.739192E-2,-1.1120452E-2,-3.800001E-2,-8.291002E-3,-2.4775174E-2,6.1978757E-2,-3.817438E-2,-6.291544E-2,-3.800001E-2,-6.2532954E-2,1.1354609E-3,-2.5462082E-2,-4.8060596E-2,-5.7194896E-2,-4.1202154E-2,-5.2838612E-2,-5.754772E-2,-6.4567864E-2,3.9714705E-2,5.4909952E-2,-7.3539846E-2,3.1641435E-2,6.0143452E-2,4.4284042E-2,3.55003E-2,-9.429557E-2,2.7175695E-2,4.3111216E-2,1.56228095E-2,-3.646814E-2,-4.6112966E-2,-1.3651405E-2,5.2196663E-2,-3.5789337E-2,-1.4211322E-2,4.7090743E-2,5.7719775E-2,1.8959224E-2],"split_indices":[7,6,7,0,3,6,7,6,3,3,8,8,7,0,7,6,2,8,4,8,8,0,0,0,3,0,7,4,4,6,3,8,4,6,1,0,8,3,0,3,8,6,0,0,0,7,8,8,8,8,3,8,0,2,1,0,0,0,0,0,0,0,0,0,0,0,0,0,0,0,0,0,0,0,0,0,0,0,0,0,0,0,0,0,0,0,0,0,0,0,0,0,0,0,0,0,0,0,0,0,0],"split_type":[0,0,0,0,0,0,0,0,0,0,0,0,0,0,0,0,0,0,0,0,0,0,0,0,0,0,0,0,0,0,0,0,0,0,0,0,0,0,0,0,0,0,0,0,0,0,0,0,0,0,0,0,0,0,0,0,0,0,0,0,0,0,0,0,0,0,0,0,0,0,0,0,0,0,0,0,0,0,0,0,0,0,0,0,0,0,0,0,0,0,0,0,0,0,0,0,0,0,0,0,0],"sum_hessian":[4.034679E4,1.2731287E4,2.7615502E4,1.2297578E3,1.1501529E4,2.6548887E4,1.0666166E3,1.0661521E3,1.6360567E2,4.11997E3,7.381559E3,4.1079414E3,2.2440945E4,9.466956E2,1.19921005E2,5.845743E2,4.8157782E2,1.3834814E1,1.4977086E2,5.396235E2,3.580347E3,6.6091045E3,7.724547E2,2.4664976E3,1.6414441E3,2.0017062E4,2.4238828E3,1.131487E2,6.7723107E0,1.8240074E1,5.663342E2,1.9803494E2,2.8354288E2,1.0671263E1,3.1635509E0,1.1806436E2,3.1706493E1,3.580836E2,1.815399E2,2.6867534E3,8.935935E2,1.3471682E3,5.261936E3,5.0492105E2,2.6753366E2,2.4483594E3,1.8138313E1,1.5900399E3,5.140415E1,1.7773393E4,2.2436692E3,1.4718652E3,9.520176E2,3.1984723E0,1.0995022E2,4.822315E0,1.9499958E0,4.6623836E0,1.357769E1,1.6554178E2,4.0079242E2,1.6284883E2,3.518612E1,1.2893129E2,1.5461159E2,6.6177654E0,4.0534973E0,1.2099329E0,1.9536179E0,6.0327353E0,1.1203163E2,1.2187913E1,1.9518581E1,7.79766E1,2.8010696E2,7.021617E2,1.9845917E3,3.408595E2,5.52734E2,9.861096E1,1.2485573E3,1.8868381E3,5.615211E2,9.67402E0,8.464293E0,1.4547483E3,1.3529161E2,4.9893417E1,1.510734E0,1.3640667E4,4.132726E3,2.0195359E3,2.2413333E2,9.850932E2,4.8677203E2,9.3952545E2,1.2492173E1,1.0193279E0,2.1791444E0,1.08664246E2,1.2859793E0],"tree_param":{"num_deleted":"0","num_feature":"13","num_nodes":"101","size_leaf_vector":"1"}},{"base_weights":[-3.7326437E-5,-1.0930579E0,4.960931E-1,-4.6043897E-1,-1.1620699E0,5.5658084E-1,-1.0428401E0,-3.6625138E-1,-1.0809345E0,-9.641521E-1,-1.2736354E0,8.3273286E-1,4.5728046E-1,-6.516679E-2,9.904826E-1,-6.49631E-2,-5.3431624E-1,-3.3380464E-1,-1.1487843E0,-6.3837725E-1,-1.0356175E0,-1.2951754E0,-1.1188937E0,7.138066E-1,1.0493993E0,5.212172E-1,-9.956178E-2,1.1116959E0,-9.0120566E-1,-1.6269019E-1,4.340473E-1,5.3575765E-2,-6.286971E-1,-6.3757867E-1,5.969572E-1,-9.9287915E-1,-1.2787175E0,2.790449E-1,-6.9635755E-1,-1.1041588E0,-8.369974E-1,-1.2595023E0,-6.5203734E-2,-5.594469E-2,-6.424322E-2,8.8283247E-1,6.018362E-1,1.0820588E0,5.3125685E-1,6.633391E-1,3.7297142E-1,-6.9001967E-1,9.784714E-1,1.2404271E0,1.019059E0,-5.6640685E-2,-7.2768643E-3,-2.2053538E-2,-3.1379454E-3,3.58178E-2,-1.5865277E-2,1.2124285E-2,-1.1450828E-2,-3.7455875E-2,-1.4378034E-2,-1.204808E-3,-3.7064724E-2,-2.4152592E-2,6.0177702E-2,-6.121214E-2,-3.78656E-2,-3.7064724E-2,-6.505414E-2,-4.184987E-2,2.4569152E-2,-7.0800446E-3,-3.9949678E-2,-4.7938976E-2,-5.594469E-2,-4.184987E-2,-5.1372495E-2,-5.631339E-2,-6.345657E-2,-5.0128233E-2,4.4682816E-2,3.2187738E-2,6.4259046E-3,5.7094283E-2,4.4113442E-2,3.723706E-2,-1.8635636E-2,5.7288758E-3,3.525201E-2,5.5812625E-3,3.4060776E-2,-4.5330297E-2,-1.3155997E-2,5.0759364E-2,-2.1180077E-2,6.3049205E-2,2.386943E-2,-2.393411E-3,5.2641667E-2],"categories":[],"categories_nodes":[],"categories_segments":[],"categories_sizes":[],"default_left":[0,0,0,0,0,0,0,0,0,0,0,0,0,0,0,0,0,0,0,0,0,0,0,0,0,0,0,0,0,0,0,0,0,0,0,0,0,0,0,0,0,0,0,0,0,0,0,0,0,0,0,0,0,0,0,0,0,0,0,0,0,0,0,0,0,0,0,0,0,0,0,0,0,0,0,0,0,0,0,0,0,0,0,0,0,0,0,0,0,0,0,0,0,0,0,0,0,0,0,0,0,0,0],"id":15,"left_children":[1,3,5,7,9,11,13,15,17,19,21,23,25,-1,27,29,31,33,35,37,39,41,43,45,47,49,51,53,55,57,59,61,63,65,67,69,71,73,75,77,79,81,-1,-1,-1,83,85,87,89,91,93,95,97,99,101,-1,-1,-1,-1,-1,-1,-1,-1,-1,-1,-1,-1,-1,-1,-1,-1,-1,-1,-1,-1,-1,-1,-1,-1,-1,-1,-1,-1,-1,-1,-1,-1,-1,-1,-1,-1,-1,-1,-1,-1,-1,-1,-1,-1,-1,-1,-1,-1],"loss_changes":[2.15162E4,5.402666E2,2.54092E3,7.090744E1,2.4537207E2,7.196831E2,5.481332E2,5.3678574E1,7.741379E0,9.316626E1,2.6330078E1,1.7817236E2,6.8775146E2,0E0,2.8016281E1,1.8649685E1,3.780815E1,4.551943E0,1.6985626E0,3.8899353E1,4.5298584E1,3.857422E-1,5.2213745E0,8.437329E1,4.102954E1,3.6480713E2,1.2675502E3,6.1645508E-2,1.1734715E0,8.855254E0,1.3519376E1,5.132291E0,2.5785873E1,1.0802879E0,3.2979887E0,2.9467773E0,4.8703003E-1,1.3051573E1,3.887082E1,1.1737793E1,1.8284485E1,2.4438477E-1,0E0,0E0,0E0,3.7332764E1,5.352057E1,2.6625E1,2.8789696E1,2.0232227E2,6.832926E2,1.187146E2,3.6709167E1,5.5519104E-2,2.5818405E0,0E0,0E0,0E0,0E0,0E0,0E0,0E0,0E0,0E0,0E0,0E0,0E0,0E0,0E0,0E0,0E0,0E0,0E0,0E0,0E0,0E0,0E0,0E0,0E0,0E0,0E0,0E0,0E0,0E0,0E0,0E0,0E0,0E0,0E0,0E0,0E0,0E0,0E0,0E0,0E0,0E0,0E0,0E0,0E0,0E0,0E0,0E0,0E0],"parents":[2147483647,0,0,1,1,2,2,3,3,4,4,5,5,6,6,7,7,8,8,9,9,10,10,11,11,12,12,14,14,15,15,16,16,17,17,18,18,19,19,20,20,21,21,22,22,23,23,24,24,25,25,26,26,27,27,28,28,29,29,30,30,31,31,32,32,33,33,34,34,35,35,36,36,37,37,38,38,39,39,40,40,41,41,45,45,46,46,47,47,48,48,49,49,50,50,51,51,52,52,53,53,54,54],"right_children":[2,4,6,8,10,12,14,16,18,20,22,24,26,-1,28,30,32,34,36,38,40,42,44,46,48,50,52,54,56,58,60,62,64,66,68,70,72,74,76,78,80,82,-1,-1,-1,84,86,88,90,92,94,96,98,100,102,-1,-1,-1,-1,-1,-1,-1,-1,-1,-1,-1,-1,-1,-1,-1,-1,-1,-1,-1,-1,-1,-1,-1,-1,-1,-1,-1,-1,-1,-1,-1,-1,-1,-1,-1,-1,-1,-1,-1,-1,-1,-1,-1,-1,-1,-1,-1,-1],"split_conditions":[3E1,1.5764076E2,8E1,6.458266E0,3.3E1,1.7021773E2,9E1,5.999847E1,1.7E1,1E1,1.543E3,1.4438655E3,5E1,-6.516679E-2,9.5E1,1.6058473E3,8E0,1.4599955E3,1.0321994E1,8.34081E2,1.543E3,7.750877E0,9.181842E0,6.035961E1,1.6450771E3,1.0525975E3,6E1,9.8375415E2,1.2552644E3,-4.9519596E-1,2.4093564E0,1.9359816E2,1.4290045E3,3.0176767E1,1.0798799E2,4.9208418E-1,2E1,8.151276E2,6E0,1.3E1,1.6091057E3,3.0767303E2,-6.5203734E-2,-5.594469E-2,-6.424322E-2,2.9992862E0,1.3058828E3,1.3676994E0,9.0538376E1,4E1,1.5559307E3,1.543E3,5.8965945E0,1.9E1,9.9281396E2,-5.6640685E-2,-7.2768643E-3,-2.2053538E-2,-3.1379454E-3,3.58178E-2,-1.5865277E-2,1.2124285E-2,-1.1450828E-2,-3.7455875E-2,-1.4378034E-2,-1.204808E-3,-3.7064724E-2,-2.4152592E-2,6.0177702E-2,-6.121214E-2,-3.78656E-2,-3.7064724E-2,-6.505414E-2,-4.184987E-2,2.4569152E-2,-7.0800446E-3,-3.9949678E-2,-4.7938976E-2,-5.594469E-2,-4.184987E-2,-5.1372495E-2,-5.631339E-2,-6.345657E-2,-5.0128233E-2,